-0.2898919909654445,-0.02428517695066129,-0.06212764439835766,0.20331216658360554,-0.12023053221149615,-0.04817226460434454,-0.05998874764223869,0.2941282361894451,-0.11081177579878654,0.08355957140733428,0.2939856322364796,0.14632712618867477,0.07981202689883365,0.07321730447844399,0.15467330144803282
0.27952630125608274,-0.02602777798507015,0.26945896536255703,0.2543018140347174,-0.08598754986841764,-0.08646862291227314,0.27732665936394035,-0.22140235968764266,0.15883565566891095,-0.07789662195720531,-0.26515720918810953,0.27861389433617273,-0.013691457994174205,0.24370604452330796,0.18377201943709348
-0.19786122931006167,-0.13292890127079734,-0.06519775765212149,0.2666869685808321,0.004994244755646334,-0.20005071091428983,-0.11876826855228143,0.03734574881757441,0.2463840049607952,0.28186897183714693,0.12212841606966869,0.09350404327077777,-0.07535182066474913,-0.20779735015063128,0.2522132914714562
0.26252104812728144,-0.11636790021999274,-0.11574604970890677,0.2807727482358619,-0.14934809531345505,-0.04008782066770422,0.23465623716305112,-0.1203787664727062,0.01752941678929676,0.14164033156473654,0.16650949675903767,0.24551759388590372,0.1695679808892745,0.10270615125041838,0.16685642784232582
0.22436264848257953,-0.061885684981135745,-0.2354919366919386,0.04975462931727393,0.20546931826771792,0.09137590684149544,0.1945585775969091,0.07900855395380296,0.23956559399917682,-0.06489296867784766,0.16397723368031003,0.061255565243121035,-0.03793874625634597,-0.22296512886527342,-0.13324812121568252
-0.24536440876692167,0.11724118669171314,0.044748295092842436,0.12698342639269838,-0.22146541407465986,-0.13610070216847783,0.16362526598031457,0.010806911501762995,-0.24745267881382202,-0.21662105294586362,-0.22455660387950588,-0.01588790852539307,0.03727742428635972,0.27341524528717415,-0.21736398127815326
-0.015141262934838196,0.07682991732463508,0.17655447868764548,0.058552083123229404,0.009265191495358649,0.1779974026360998,0.1394367484452788,-0.2185685224917024,-0.06502231976886064,0.154633401193204,-0.02038578366212037,0.03133825497000042,-0.06321562201362793,-0.26584408380862495,0.023518558661576247
0.1481507623136991,-0.24917965689349078,0.2707084494407991,0.2038306402956776,-0.1502816425233503,0.08607448101642168,0.14664824035952012,-0.02889789864020975,-0.04028447372341959,0.017733864122543075,0.037064752412464506,-0.09048635019068871,-0.10505037585829463,-0.0361281276790707,0.2979215966515179
0.24345730154311462,-0.022089782639655452,0.28183664488345384,0.29808626412046973,0.11644981895599965,0.019498089880598868,-0.25246911699604335,0.05646774630934126,-0.10801294657549201,-0.022770769337734476,-0.2040528230423562,0.033262697586568635,0.26740365253242765,0.07358206835305486,-0.023552077204124604
0.06521721355211729,-0.18837110720175385,0.07710570017048415,0.10836332108757911,0.09531900323010693,-0.163156227466036,0.2871672418133561,0.2562487269598647,-0.14318357521741154,0.047612763414076664,-0.21241984897923102,-0.2685658904538752,-0.04645547613559875,-0.27085070533713984,-0.15048267277850355
-0.18415724319153615,0.04705340715175191,-0.11587276176433718,0.2480976790349611,-0.19575208133254868,-0.004530285177273384,0.08212602601751767,0.12673338947165147,-0.1542295100221487,-0.15843781553082545,-0.11220915472396056,-0.09380800856859767,0.23321167928853698,0.23140286771734936,-0.2140388085001927
-0.23649854749074503,0.1776457439128408,0.13728181839346426,0.19378583458737186,0.031197091964577373,-0.010800850002615934,-0.07846239764295407,0.29433421310287294,-0.11821786416066737,0.1108299576989995,0.22842440370736766,0.2589841640213599,-0.10845428822009187,0.05373410323441524,0.05909440850007123
0.17503354202399568,0.11081352330887421,-0.09373831348310416,-0.16555406209656345,0.18940153139962929,-0.02155164963841049,0.12231356296678875,0.044457620817074384,0.2279952233440819,-0.27021552779258207,-0.2029930752324214,0.02935856184580843,-0.23312518895850065,-0.17839625603460996,-0.24999728993794595
-0.19059432365554407,-0.13791177158154153,0.06859414236005106,0.16439960627856112,0.21353799922960487,-0.25403151504879773,-0.14426031503461637,0.15813826605715392,0.24393354908975,-0.07397289956675787,-0.09595303970429415,0.027205227520635478,-0.18475751329387796,-0.23088865838066547,-0.12330116553546255
0.22483202875051747,-0.00705167320720086,-0.07938968892252797,-0.22129518286270833,0.2523634916978967,0.0028361724689071137,-0.26283697159869995,0.18041175358504447,0.05756171642482921,-0.23348906405746112,0.02677899849443082,0.2241322106557439,-0.24278614136194987,0.04960703541094147,0.22855987737124306
-0.27591619183688504,-0.15914543319357255,0.17624786425339212,-0.2667203773690982,0.2583181354237267,-0.09200950161441071,-0.14537970913065362,0.1823518781197026,0.23103874227510662,-0.16637619065525774,-0.01789859385272971,-0.0964792794405595,0.11527838731716222,0.24157216404979936,0.10523744772036482
0.039960638846885374,0.03972517776781247,0.11711398092424131,-0.2868840044922793,-0.04638707719870827,-0.04283388132402481,-0.16594749179896742,-0.2425049572402195,0.07566614212817435,-0.1627997294961996,0.1731415239196575,0.28490908891996486,-0.19449178726898536,-0.08615642319281352,0.014973645939919154
-0.039215391443524386,0.11056585024579915,-0.07193320353775831,0.08092532251355553,-0.02391992394912268,-0.08467587221312381,-0.12667843512548074,0.2773947727012625,-0.22259202543602702,-0.027602129912210227,0.24722774849594553,-0.14261469429190493,-0.24759347789622266,-0.1966923376634241,0.0558964683892705
0.04414312007340514,-0.221570439674884,0.19263431418652976,0.09458057382328025,-0.0834534141947049,-0.0020398177439660465,-0.29209422415059444,-0.05172302771848522,-0.0662679603263498,-0.16229174532563173,-0.13882670668034577,-0.04966596105856791,-0.16018904448059607,-0.0206966729415769,0.15765345103420841
-0.020980046731815315,-0.18314912402949682,0.05006247033555212,0.09008870401839976,0.2554379553746413,0.1633152170061411,-0.09129200990760414,0.10651427499197752,-0.0007362964168144415,-0.16190980060641397,0.1934063087048952,-0.11080489728194956,0.13342277050050072,-0.033001829383930925,0.1661133535466676
0.1552182589364373,0.0035259740165863793,0.11657768703789569,0.1005275426695915,0.18913426848706788,0.19504751467173703,-0.002213964972337057,0.041262464388972186,-0.12632252383278136,0.1365354457002142,0.1488063595799455,-0.11503713625541445,0.1083658712766436,0.18164198609179288,0.19350523658355331
0.2546804766510294,-0.1451153568008813,-0.04078196655063639,-0.2350653553399685,-0.25990020301262173,0.0760695109822932,-0.10034933198740623,-0.2953389173532652,-0.18549664053412968,-0.2792088519625626,0.17484462343642357,-0.16383614597925214,0.20818776470107497,0.26978053909480165,-0.09669673145922997
0.2711946556526932,-0.03424843280713328,0.2935599949098989,0.16830377483015013,-0.20220629300997633,0.041501334114206034,0.04407796550826626,0.21372006316388298,-0.006488349603897048,-0.10166976638888087,-0.20258975037724283,-0.029717720494549738,0.1649441494354555,-0.20254037611101433,0.2378730163115221
-0.04389518767220513,-0.17158054863023822,-0.09028200278040113,0.2380450108024578,-0.04592280354477259,-0.08095835787470346,-0.2139609715541213,-0.2370775692148922,0.1973635782841438,-0.2844563245606346,-0.21632784865824395,0.11924551632360375,0.024206321594984537,0.15111525572325762,0.08097764661962027
-0.23561182448920043,0.2248595819116598,-0.0843805751731502,0.1998635212947586,0.19900661819697024,0.09672807010950435,-0.030821094027787543,0.21497207262164159,-0.013583343245282209,-0.23580630455676485,0.26508119582266726,0.1316141095533967,0.2016043640913669,0.1053993574594162,-0.2822796378648495
-0.0020287924230192877,0.18123369198758404,-0.1757027587080159,0.037912790615448166,0.2586486668049331,-0.2188858691797813,-0.17547272576693668,-0.2998972143674576,0.15586185695490679,0.06731018752993045,0.09725283344663632,-0.22103516410749066,-0.21983871051632473,0.04591368987453798,-0.13447075310404705
0.2083072511970417,-0.21612135221346523,0.16303250571027716,0.12498499536300567,0.17099191191981766,0.26498325530763606,-0.21905103792802105,0.05900394269692072,-0.03275691420096155,-0.08173014921558222,-0.2737522919571611,-0.08986881302100386,-0.2180908160513788,0.2622068588189745,0.0019861837662268
-0.052586998273364494,-0.07484548566490043,-0.01690302917609945,0.0357658420353239,-0.13641576460795868,0.28061734001347965,-0.26120532770926247,0.20472456272980072,0.12034565564088218,0.25353842522164055,0.20318164188067228,-0.06677847032399103,0.16294107668164487,-0.00893643437107794,-0.06861024024616283
0.13340562754713653,0.17844118049346283,0.22565607167399787,-0.09599022742059213,0.12929642569876432,-0.028945667695413735,-0.18803276379956996,0.15751131042807787,0.12035512171863588,-0.23733599287966461,-0.23402276534235184,-0.08489470580088679,0.21904955368970697,0.22342711612551408,0.046363825722433694
-0.23887760128655444,0.14550250508802276,-0.23962451422333092,-0.09548246319193868,0.18069177469396971,0.13818582172557725,0.15895408192016347,-0.009864401076240314,-0.035085993202917554,-0.23529051437151183,-0.15065847625962508,-0.15235690279483946,0.12472213389478087,-0.2986574873623896,-0.09217625880865889
-0.24517028060565935,0.2848167307573921,0.26714618576466104,-0.08811045847948187,0.26435702099405467,0.1306136286933845,-0.2940881784962318,0.18369429042384317,-0.23779114860686093,-0.2936244966634274,0.2722348812575423,0.14279493422439316,0.017901260644691885,0.004585658940869208,-0.2041322679920863
0.2734130762114548,0.0051638075972568025,-0.03779982355155095,-0.14317944081520706,0.22080941410328533,-0.23301384611501605,0.021025384573464645,-0.26746277479038943,-0.11191682415550575,-0.0009863076119449588,0.05685726619260311,0.17836594200580197,-0.17633649620581565,0.28497463753382507,-0.01414831919146191
0.20597378793381754,0.13591584777848045,-0.05387123202920976,-0.17019288975513536,0.082449774093093,-0.21280773004175702,0.20540744805171324,0.26665919192566206,-0.1653205049825457,-0.2938875544219518,0.06445307184660276,0.069417914717119,-0.07524232839355008,0.042416565172081755,0.07860164871517168
0.26541166733772886,0.07462118156262533,0.05455790482539278,-0.11209198196655251,-0.2468451680804812,0.1645282071272211,-0.28402567627017583,0.06533360365111945,-0.03098067559115547,0.15753806016639849,-0.2600912338822908,0.1222102823123371,0.1271469850516702,-0.08754593879622521,0.013759426307290835
0.10829405495031379,-0.0006766084044412849,-0.13586842409360655,-0.1134143727527248,-0.01746477612530994,-0.27740326182421343,-0.050111659275536985,0.0259762332367654,0.09303265624570956,-0.23417034367462702,0.0970740846839377,0.052255175634589424,0.18678904903983012,-0.2955036867870817,-0.23874719508198017
-0.11368305669106181,-0.038403580545517846,-0.03367368126539152,-0.050820268270045446,0.2930086834318166,0.04236900438773912,0.27608358214582845,0.25776440277004425,-0.07444019226979581,-0.014755767871312275,0.2348188376618983,0.18191820934156583,-0.12937124416864698,0.19238186954799769,0.13166058844497916
0.07706281115185847,0.03203513785961238,-0.17613464097780343,0.12611009752777705,-0.1869793822961351,-0.026595852588011552,-0.14226385964739627,0.05159937023756167,-0.24736965428720586,0.2789010960932586,-0.1152950836894946,-0.24544283143436538,0.20503046547450782,0.0840237857822177,-0.16493731962181735
-0.07023862115395631,-0.2694478170432248,0.2935825760849505,-0.18237635530381513,0.10820132402939164,-0.1924818885906353,0.022257322520169154,0.16914136838411703,0.18786124923417058,-0.12906074004694562,-0.19549584001274758,-0.02946702780845767,0.0643015874974951,0.2685735511295672,0.034620934763906354
-0.26709198456695127,-0.011857752664804442,0.21559303868609223,0.1758610056074169,-0.28328935125314325,-0.2980155994345494,-0.26076655311851155,0.2954729178332421,0.12046099852311254,0.2791711421760676,0.17023849689637896,-0.021355679343714684,-0.11067023743079255,0.22779170731908743,-0.03175229153851258
-0.19990104672796963,-0.21413557570583241,-0.27764128425163365,0.1278144825061023,-0.037844220987510634,-0.11358895569176344,0.09199736558573224,0.1078575883996078,-0.03542041790395678,-0.024108015559175078,-0.05437218772197653,0.28315140894453145,-0.20636445773434137,-0.20812337156864325,-0.19405187884480976
0.10595481130421967,0.24104674830534276,0.012514898905846292,0.22482513184925096,0.04533215725814366,0.050248589344802655,-0.22064761091256913,0.13091074934021013,0.17951006802369368,0.05822018610960972,-0.1478629368647705,0.21073913648566683,-0.262121345608669,0.1790122350253574,-0.1776329490026882
0.2633791279005086,0.20153486423856123,0.06752369083210921,0.17343237582349497,0.07177731599890336,0.28929190597076476,0.20224496085641225,-0.11930738373702038,-0.28494118201464574,-0.17517238545414432,0.2318214165926751,0.13282806429612892,0.28736521450192015,0.004704401076394749,-0.1131131426987199
-0.15667964409158402,0.2424129362337105,-0.1628555817195209,-0.0053317951109754175,-0.166182158391598,-0.21837941055994053,-0.24345880954695942,0.03955017008488121,-0.19884044589239702,0.27401849459254796,-0.18919465717994566,0.01790884455582281,0.12439062228294001,0.22740320771431138,-0.1531133660918443
0.07117700436003242,0.049576215349231775,-0.26741576037590786,0.2691499539323114,0.19557021640439348,0.22385147135994032,0.2989302111322369,0.010361735486873414,-0.03514600875392776,-0.136915602367345,-0.2595688972188692,0.1637280081316812,0.15778338962564337,-0.06346076670835793,0.1425989857663261
0.12401652671513679,-0.08941990583966598,-0.08719028380044294,0.023580795940412784,0.09004230295974269,0.015882670865906286,-0.10296489887324117,0.20210056436242613,-0.24654761530848296,-0.06418174903836693,-0.1883873111138797,-0.07988977509552242,0.04904937006747839,-0.1078321715092426,0.09481927419760151
-0.1974132242243142,0.07114483884738144,-0.1656919050233113,0.2090080014865234,-0.18563283444529327,0.08873650215112311,0.12735571757593028,-0.22868168806897765,0.226885990530243,-0.09122136083855312,-0.0771171688922812,-0.06127462443501078,0.1530315566360374,-0.0033364544879059266,0.1771151456413431
0.1626297731172793,0.2835877526756338,-0.12531172618800399,0.2002466330679879,-0.09837596767496681,-0.1490362260652723,0.2194592442980075,0.0012289835232174307,-0.10278798148682691,-0.19757457983940013,-0.06300041147433054,0.29369541033177665,-0.13817831243468962,0.0181993197648464,-0.24918264660579745
0.11322194570290693,0.07428535116400829,0.06399442271009878,-0.18253551486577818,0.006866420856296629,0.13274687060786233,-0.012791234500878434,0.14846259832144482,-0.08551156666564852,0.020941913303997972,0.23546648632820635,0.16878971802375997,-0.11607209739466595,0.0929018134607692,0.10335836857936588
0.2609739476546295,-0.17864512708213856,-0.02608284519214248,-0.1267116985278346,0.09956748968381213,-0.11039360994742728,-0.006481450683450518,0.10061585702800013,0.2739433514597986,0.022270311299877,-0.10914427248064638,-0.2836728466724271,-0.10607507472403024,-0.08230097517912957,-0.015345584881916162
-0.03594718204814169,-0.2637155653307832,0.10716624757854762,0.2938297552139247,-0.0923403946804931,-0.20238126375498747,0.20971496327704692,-0.0018231873269057841,-0.1253114754948516,-0.10414338344030658,-0.12129177306810325,0.0394206021538398,0.08919159227924955,-0.04288492131955124,0.0011898416290155236
0.06583106009772768,0.16450226109354962,-0.06074041066222865,0.05284021179494153,0.04629804311435681,-0.19777609361116658,0.022117738250445163,0.2897868489093652,-0.259448847349619,0.14859113868142731,-0.009921005389999935,0.045294946357733734,-0.006078589020439784,-0.1433182163378066,0.2504344478557792
-0.04816509966257404,-0.01434578921923476,0.287304560483339,0.27210397694508076,-0.22521211665649343,0.20804588536574647,-0.04042566309233897,0.2772362982946465,0.09218767744798828,0.1682858128869073,-0.18260575069947063,0.21315830334159663,0.23146913142914355,0.20834204678148643,-0.02892154573312651
-0.1478875864477904,0.2699117408892325,0.1784256201878434,0.21460769550155562,-0.2816141842808407,0.09790191150769872,0.2911484715642198,0.19382384275200076,-0.10093712127013205,0.03722723389393384,-0.26055183737657267,-0.09079919981354437,-0.15865890003138405,0.262782796665831,-0.09936494255120247
-0.08647581261083284,-0.0352648447424582,-0.061188002306320564,0.025352688636875474,-0.08437047425159001,0.06983292294900428,-0.08291956962789956,0.09232404257916083,0.0517495595417371,0.17374692618428184,0.1289315630199442,-0.21347308799920373,-0.14394223063973272,0.06569718213019782,0.0978681180391155
-0.2552957922569503,-0.0413498876510756,0.24956259555641644,-0.19992909346774143,0.18171425922346424,0.038773380357896015,-0.06896262253928706,-0.19908643665828382,-0.235153644978474,0.06867906895046627,-0.24263456222433766,0.2699806438883679,-0.1242856489693775,-0.18223811389248296,0.11478423237879372
0.1371871514514319,-0.047039033448923906,0.06746982486146794,-0.2191388665371662,0.0574643402649298,0.095769462484246,0.11600931010218596,0.21903259758835508,0.12152617823617534,-0.1254831693585126,-0.036029566514616224,0.04331908250365646,0.07126284921678966,0.12235786462140319,0.05482992354488948
-0.01194567475640379,0.08198445176395619,0.044304251246252147,-0.15244165890808734,0.18300470836567442,-0.2801991493346207,-0.14636937853190382,-0.02770613542131134,0.07676417285386017,-0.19061260430448979,-0.012370294529946146,-0.12223832501861473,-0.2300415171910134,0.04323505334808131,-0.24569135142971105
0.02216472528632757,-0.17942613939644253,0.16348794130764846,-0.11663041478413996,0.29649902183591603,0.07869972096042732,0.18642469025113356,0.054488084820789096,0.09690714179693805,0.13166909309147273,0.1701042399451815,-0.06528918875696893,0.1772611098663711,-0.008973281987821602,-0.06265020048715382
-0.13885432959067587,0.23942205472716985,0.08869061824496419,0.25810580088871987,-0.27488019336073527,-0.05912960617379237,-0.20182750092988697,0.26711377940681075,-0.0008935585540157387,-0.26442812872724364,-0.13506972764561903,-0.183872742533415,-0.1494824401285412,-0.2260346708169026,-0.04765074432543372
0.0778054388124844,0.26736298824145255,-0.1820416315986602,0.1836489994144178,0.27155946739058556,0.18949986685928782,-0.1952880161525596,-0.056694701479761994,-0.08166024606585423,-0.019504025346018583,-0.2554346468246879,0.16644741830829224,0.08828792442374933,-0.2706339330548543,0.012035058020811241
0.2831717270821773,-0.16757475016629503,-0.1050428011226649,-0.2020437720399389,-0.23006175897303857,-0.24841164366733315,0.07395655081877467,-0.2915692957291977,0.13351772974305487,-0.12217056897980799,-0.27949862693585487,-0.11471438065741871,-0.07286959913122906,0.21746358258132564,-0.05606892185339126
0.16870400532118757,0.041752862103308426,0.2098776149132616,-0.046389973544523504,-0.1471763581989243,-0.20394591014667338,0.18829678777607134,-0.04439910795697932,-0.16833513735073913,0.11368705391466111,0.15340917803601092,0.2476134972984027,0.22218349970074053,0.031348995335378105,-0.02143942809420453
-0.07201265457097357,0.1784648283011169,0.15638490040870287,0.004333101016013036,-0.11168023697812049,0.028726901769084497,-0.1835647149197991,0.024779230563188204,0.11340057744537657,-0.20887046210077642,0.042985651668253626,-0.21279153684083474,-0.13066622661392846,-0.21765460690443572,-0.2223330787755582
0.18187663080618902,-0.11955746903047697,-0.18878642140192506,0.02120812317448733,-0.18451962191402937,-0.28078185694089236,0.18458062068721093,0.01573010613386311,-0.10056924071466083,-0.25858700731815687,-0.21496020694575566,0.18291791116151895,0.16889862008398132,-0.23279675212334405,-0.028546100724508985
0.279641788677565,0.13261392430547414,0.29409650611373866,-0.05291403023478855,-0.2806556075262473,0.1867620226583251,-0.26914249456732026,-0.12414958700243936,0.23078587598360506,-0.278020496759213,0.19224831029803843,-0.051052369005738674,0.09706388076263722,0.05633980797352489,0.21448637537924056
-0.2119816426816575,0.0624930817471045,0.054231438694637236,-0.21032880552594344,-0.12312381294596518,-0.24229076602352015,-0.09947964822934022,-0.21031651201392726,0.07869796228582521,0.015461335643376373,0.28808274062019007,-0.29276505747872905,-0.04466987406169182,0.13444410112588645,-0.21344888973252232
0.24437789505541266,0.22616578215227406,0.06169223595693727,-0.2928360551723134,-0.27567457412265683,-0.15086833777597972,0.23303511438191,0.2012675632462469,-0.15127090810245303,-0.15302329999723221,0.15296335517580065,-0.29228063541378785,-0.04371827458933891,0.25558931419391834,0.00549712741844078
0.13545989647203457,-0.2502964428545482,-0.25858282706207186,0.29279671730840245,0.2887480891378278,0.16718293881751145,0.038071646770817646,0.07897996223070586,0.03848059419882249,-0.17011470104307153,-0.20070818343186267,0.2507746410137777,-0.09375480325179816,0.17079108621155464,0.2039721805032653
-0.07573751668436544,0.22217808524111013,0.16646025169481846,-0.23018618375283884,-0.10046321377578774,-0.2001462655240293,-0.08860463846514136,-0.18882872735845063,0.13419670962055397,0.08580877693477351,0.2919057029926235,-0.014858526503703062,-0.10596461569259819,-0.2266781683911251,0.09908130444124232
-0.15671502177487628,-0.13207808413723757,-0.21676382071659325,-0.1521015539734661,0.13216429421299392,-0.0881506911227958,-0.15739499093519704,-0.03382765672157978,-0.2775498723439641,0.029148882210417615,0.03981484850311539,0.018409676968119848,-0.030298398640804136,-0.18074175227445388,0.21651758032693816
-0.29183886905652395,-0.07239852003524454,0.2266683427966901,-0.10343129367219622,0.006663519213334856,0.21740694685994078,0.18673677151082502,-0.18852108075026675,0.16755561867492214,-0.284535692342748,-0.11706642384391118,-0.10357051975348663,0.22827726145205857,0.24091112109726304,-0.14446211985795138
-0.2981280302122821,-0.10537498853725276,-0.21860408674323253,-0.22177590269303216,0.11304064494589378,-0.12434986280892923,-0.1677016774711439,0.280717791281418,-0.2894216224903012,-0.07821915619836481,0.008546935643608297,0.1346062831254914,0.13714210450791503,0.2590725457046091,-0.2093607174459778
0.13477455555735104,-0.23019305245291496,-0.20069961378332837,-0.18306038238986871,0.22455664652998447,0.14452684808492172,0.19921483260574502,-0.20488839549344912,0.063166245272121,0.2437479462261914,0.012028668247972205,0.06393936141506928,-0.09867159751624302,-0.2814167019433404,0.2834155867033802
0.26452732017473696,-0.03639185680813611,0.2927664201435128,0.10654385792043004,-0.18282709560616967,0.11183450625842295,-0.19416782021430323,0.18198550140287223,-0.011119488517416232,-0.13589678746219772,0.07465407933072497,0.026051484511481315,0.27548523355312254,0.26835440603889665,0.1454459557642828
-0.0992455084771718,-0.07155641621155548,0.039453789668622154,-0.2517850931972189,-0.10932667284792735,-0.0340594591566422,-0.10560183036052331,-0.007144594083599909,-0.25768843204328173,-0.20991597679018623,-0.020108923607095614,0.20679158295239847,0.14413539477177423,0.0891614943837073,0.028599341445685253
0.20747386190002906,-0.2533112746392282,-0.11816109742199604,-0.08612806299765985,0.10026796762368945,-0.16611712114688978,0.05915388783714459,0.08204586346906989,0.1980713395019455,-0.21587546455728288,0.06132072701998991,-0.12919986092924976,-0.18617047248615354,-0.2851911877085653,0.1616716546538808
-0.04034121679133586,-0.1665354916222745,-0.13659545310708002,-0.07459609512221585,-0.11568314943143276,0.03386897766406839,0.1316695005364018,0.25892512290253106,-0.027341331079465847,-0.2849655358372824,0.02263401704208538,-0.26737953994199803,-0.014679053550867849,-0.11687597269966882,0.289738626587955
0.00658560729819527,0.2071770057310317,0.06106839238822063,0.11977136374438993,-0.18401473874213567,0.12576024440404282,-0.2392153618212546,0.13747356548435719,-0.013997665346146937,0.28844342063157496,0.20313459872111053,0.2726856493516658,-0.06685309684081461,0.24199815626454385,0.10458154942892518
-0.09806795292119898,-0.03076913849766023,0.19766129565825183,0.22645214972550604,-0.04814241180941514,0.26866908257677774,0.26335907247780493,-0.2695813061138362,0.2310030543446932,0.016290110546746173,-0.19214704797859664,0.048027981498619476,0.11487839620792151,-0.1641147427585454,0.23124793492989795
-0.1127603718917968,0.19461290948058554,0.09340423400445216,-0.21410010782466488,0.0017081946247207158,-0.009389530487103944,0.23421580007832982,0.14581317082109163,0.0024980077891403885,-0.0227651858445464,-0.07053442782205357,0.20932527766605996,0.17786195098607321,0.29120222932478507,-0.27092180304879043
0.039082779893759634,-0.012012691059058373,0.2959559825810109,0.10064715030320098,0.2785764495162592,-0.09114647410580767,-0.23317837395843888,-0.17239689648229056,0.20655293852640716,0.07642540863862496,0.2200225344094793,-0.17716755194916162,-0.2816824972080985,-0.23776002597806528,0.12823153395961437
-0.02033410837398897,-0.19033438160103475,-0.1292619849314035,-0.1580410182997261,0.29448801450098544,-0.19915242356876706,0.09956239926460836,0.015337026620655503,-0.1870118936955208,-0.1457689009527107,0.15206582895216117,0.08915961852925064,0.25217623374227155,-0.2172386777572325,-0.24049192219249527
0.17779592116537188,-0.20866538388502004,-0.1613126260356047,-0.12438562733713075,-0.02366909944758526,0.2205684492398017,-0.1286348605291998,0.20014261012256745,-0.14821865481442126,0.13312953016014356,-0.033790856894830024,0.05308728039774391,0.2155074881646129,0.20124671025071178,-0.12652069293905263
-0.027689084626786098,-0.1423311924711969,0.11061222062807786,-0.07848463071435718,-0.28977201009171805,0.1871639796926557,0.2149971817218041,-0.290413128739325,-0.009076773226817436,0.12786562948679558,-0.1609232041467237,0.029212103388872313,-0.27797211379966785,0.1690162668120878,-0.09204760576724937
-0.2853649980292486,-0.27719259077582575,-0.05425186385057084,-0.15872258933658104,0.1794710830971635,0.02232859551333749,-0.17044714672464495,0.27912013635324867,0.09181125938694829,-0.07189666833629596,-0.2126330004756038,-0.14320084765705243,-0.001805542638116553,-0.15824771272742322,0.25415711340934205
-0.049309366860092525,0.16037239465134182,0.26619620271549377,-0.012926312160266915,0.1705926759720469,0.18805811604150963,0.2445559194249221,-0.07006660824395419,-0.20047145701737284,0.05188905553419787,0.2216405674585048,0.26621115559897396,0.0018696659346438271,0.2885612045690677,0.19198121314464137
-0.03043534602135508,-0.24389886885193462,0.19706545758345165,0.10868481565152298,0.1747570424944699,0.12253918080754043,-0.05446823657581318,0.2710692464124504,0.08315891949968202,-0.22369016911680084,0.03610876186467776,-0.29133787114400117,0.19166411741125833,-0.13497239819668536,-0.25717574888400313
0.23782698650143613,0.164235827004014,-0.2617297574815121,0.10245161593526364,0.270960692262449,0.28041074022949936,0.1328763517967803,-0.1428980454745285,-0.056226703789287014,-0.21153769241803477,0.21523807440133694,0.1087725740058717,-0.24376170494472027,-0.21779495775934693,-0.06824553545032337
-0.21470904394550364,-0.18670132654849295,0.11312233174228689,0.29918903528070545,-0.24540536038886304,0.17858507205425195,0.20631620632815456,0.06401501628852468,0.10563983316080378,0.19546303571942114,-0.16452282264916956,0.11588629998854988,0.2644152636868066,0.10429703294658965,-0.17294028610979834
-0.08615737072425665,0.03938457331061321,-0.27641365593417516,-0.07817203147032067,0.04802326582461786,-0.2487576675801928,0.00500915036780869,-0.13741558590067046,0.2980982563550903,0.2390540384217616,-0.09576140589259786,0.15535179280689826,0.04054745376290014,-0.23126941736879364,-0.26739097472952944
0.056966050229638396,-0.05965085947437218,0.11559138853791026,-0.16166958609903911,-0.04161671720072285,-0.012689920256686575,-0.13573845658346265,-0.07358185789131388,-0.2833192136592511,-0.03218961127238207,0.2650578394673057,-0.2785198590035722,-0.1408498951389094,-0.25058285336653635,-0.06564635965503328
-0.12308124449472356,0.25012330875463695,-0.2770440268704292,-0.1869805315455742,0.11736858758935476,0.27395568909689355,-0.027495745492702783,-0.1871154344717743,-0.2254795438663228,-0.19867315479033074,-0.042781076521602075,0.2583501467182496,-0.017692139581058586,0.25944420050341394,0.11151283750513775
0.2655338481823692,-0.030560284439341584,-0.1813566059919193,-0.0966883337747142,-0.13429313890178302,-0.04049065547216878,-0.2920940080258259,-0.11957046984663175,-0.1504090411325204,0.03738184453180998,0.15427469661613788,-0.08247694061572686,-0.2366587183763026,0.2778930399797625,-0.09861550758409111
-0.2566436969357689,-0.12253282774480465,-0.29401052516129217,-0.12410375408420309,-0.23599237929221248,0.05594993961114726,-0.09684543845926999,-0.1689987066168296,-0.16660232736486266,-0.2918797864287676,0.20266183696527793,-0.2110289148720239,0.29458156172539846,0.29733929887005134,0.24727022682116753
0.2457167430123566,0.09445761725246965,-0.00204442609707023,-0.17737277035113566,-0.1552604420234527,0.2469264054588335,-0.03161659489359259,0.2552045399623443,-0.07559694016276927,0.011132228967933644,0.17193563439570783,0.03569467402894261,0.1462004933587321,0.08318553518451272,0.15894608612472652
-0.12302708751122256,-0.14735138764476127,0.07797678261625043,-0.16692012769847517,0.09035792866899399,-0.26148950208359734,-0.2638414746951906,0.10670523360596396,-0.01666855033582154,0.27802762631307526,0.08869984205802216,0.15128805217674757,0.16491178247918775,-0.24325343861093943,0.04725258409058495
0.062397237212668086,-0.2304032117754007,0.08776717077327242,0.23777722596399736,0.08305833699661003,-0.2969576586066313,-0.21879582069006803,-0.15100122116910566,-0.02436906347443557,0.20813724147751705,0.14725466374870064,-0.298075275925174,0.04555272248737208,-0.2165445485600354,0.1555376293405916
-0.0646647251794779,-0.19560551813659702,0.262525866261274,0.08793944304927956,-0.21624523140259427,0.12135436179359815,0.05978387831031545,0.1448259564359502,-0.20066369120364597,0.048863283244174494,0.07094299695942229,0.12397252656772556,-0.299700425195161,-0.24453273964800162,0.10714888798315615
-0.09837558584631971,0.10313957397437336,0.1645389197931704,-0.21067165416786543,0.20763897974577633,0.07051764873787403,0.2894587274630252,-0.06402460841377652,-0.19016202143886218,0.05131999660244757,0.2929298983258543,-0.22288228793467935,0.2648338769841477,0.17407354269082415,-0.24047051749963436
-0.202466204875647,-0.2716497780323862,-0.09901863639580094,0.12990859339722866,0.2773921071224605,-0.15828151642464353,-0.21366288253109833,-0.18247606143938144,-0.2536952103805549,-0.21909430770841437,0.20867274874961209,0.10592445599329386,0.048711324284583635,-0.0013947176113486837,0.09447006279157562
-0.1563984848348348,-0.14441448486618402,-0.05399799383597181,-0.15295535818388842,-0.21637405550593414,0.06600635821268774,0.1613845305640314,0.13848709238998236,-0.1485356980911363,0.28384063525142206,0.1888990288111562,-0.09685813321466188,-0.28791172905168433,-0.18257940197985087,-0.15310518073893092
0.195897711358498,-0.2433914359659469,0.19713213066712595,-0.04038864873630897,-0.05258960433502563,-0.03418878085658299,0.19155657164828283,-0.15589787709641728,0.046338081081117366,-0.17912004978109142,0.21175328295344756,0.08660560145352036,0.06839802769380249,-0.061291459012738,0.17594376550834104
-0.2497760624729796,-0.09804040361517107,0.152568579740766,0.2994594958313373,0.11676583592852012,-0.08036476718593075,-0.1424865768444626,0.11300029617659685,0.06852332205320838,-0.2985144558687901,0.20659486946148267,-0.14081614614007035,0.20050023777467368,-0.23445273779965858,0.023847357297123825
0.1387352442320086,-0.20342095475211472,0.13022808984109682,-0.2534512438006939,0.13988257372241952,-0.06942820391056248,0.2100522612384748,-0.04652902231239042,0.13103009575903535,-0.08648319497742682,-0.05578112067548719,0.031494552395023856,-0.2809120544853612,-0.23524080463970987,0.2504250092787367
-0.156028169966187,0.021783572496212694,0.18581262954229474,-0.08782885664588315,0.06369835425191431,-0.12501820940221092,0.26128049541887016,-0.10601901518655865,0.24571640880864937,0.19242174547848978,-0.2077351809558204,0.058967333084180396,-0.09949916757431432,-0.11290662876387769,0.09261754985901494
0.17452941313864595,-0.07711451126621334,-0.0854578801753731,0.05189908859885449,-0.045297721470940855,-1.2633102615914151,0.14493444441897874,-0.06754096236103135,-0.23039789048259318,0.10366419032801666,1.034595177144491,-0.14658734801481366,0.22366896165264266,-0.2505557819612509,-0.11068757870486724
0.28335086954433947,-0.2877250719035508,0.297034373750694,0.26558237100173815,0.029180614668574967,0.10550299791145368,-0.25852833601285274,0.1843370412699477,-0.1867095527322242,-0.032984949970800814,0.23670986862113633,-0.11975444947394914,0.272831732686222,-0.06989490801312143,-0.2943252571555354
-0.0896261335739781,-0.25543538199001287,0.11346042406873277,0.23228777895812242,-0.07074376706423388,-0.2791035313834918,-0.12460400906099578,-0.22389968147159667,-0.027692430280573,-0.04618850032885713,0.19408592547873307,0.2931847106431879,0.08296853993421999,0.23690882898871818,-0.12841498317094513
0.18466108986752158,-0.16270497638051545,0.2417529585448248,0.16766358525361763,-0.1179152662727734,0.08490940771596744,0.07511353924514774,0.27133917353305553,-0.2368833646409289,0.210235310009171,-0.1306764535089659,0.19671994575378854,0.14076336476020024,0.10373156744054846,-0.2878730155884588
0.25695281653812435,-0.19091345353128317,0.2136002082031427,-0.20241834790130464,-0.15915040468290337,0.06537326333237253,-0.09702703057614775,-0.014031916484660345,0.04896830843205907,0.29773412058996424,-0.19225693063580604,-0.21595460645245668,-0.28757382649663843,0.24050908346313388,0.0394247937980459
0.04374277867149057,0.12142937995100078,0.13728181864813482,-0.2976073074649647,0.22132978012231413,-0.22661869639881976,0.1777827857379154,0.28132479327905163,-0.06286605442488263,0.26863180542360693,0.11263270263524401,-0.14501988415605652,-0.17725338962327405,-0.04201947368695702,-0.04427524586563217
0.09758632680032897,-0.18809455205257275,-0.27951932637207594,-0.2469856931561899,0.18830650679918443,0.28080569464771027,0.13915217394393686,0.181335293942736,-0.23978122640955588,0.048339651186734334,0.12669482802096432,0.23839892309572314,-0.2305252146139417,-0.15193740969788944,0.1152075890609069
-0.04048144094331174,-0.09191833200275434,0.004497832244285346,-0.13646534601548113,0.2751477828056002,0.2467179353274011,0.22285828326371765,-0.11969325954177071,0.22217782262952562,0.153791853899083,-0.15273793781495168,-0.18510080890641384,-0.0234547475905737,0.029848733697168173,0.2985710335148924
-0.2133707396595766,-0.2984628846188449,0.18418206486637692,0.03931425782255047,-0.049834075847241775,-0.12599570464999277,0.26424939086518756,-0.08861404655322894,-0.2557034733741725,-0.23183026867695253,0.014870269731997893,-0.13162894602292147,-0.11504215818676547,-0.1336651573554984,0.15080886103463106
-0.1699043618249567,-0.1283129117286181,-0.04095965450265323,0.11307206727414326,-0.1349692168559579,-0.17538229790815862,0.2514879311792067,0.1201652272994444,-0.14003160205470352,0.1459616859883296,-0.05616647642744336,-0.053567497692139365,-0.022154857343620105,-0.23893494417947128,-0.15396120880109004
-0.11796794162228534,-0.22632399972959472,0.1888392361317011,0.25294259560258103,-0.2597451688728167,-0.2698131804913105,-0.0326600326925805,-0.05834839594025426,0.2880162349100282,0.2186491060545413,0.027959038115513975,0.10507395283841758,-0.10320846451835619,0.25284634508654485,-0.27334100661434896
0.14810910537093988,-0.2712998009539245,0.29411004268184365,0.083092341504883,-0.007486327139751178,-0.2872790036893201,-0.24426271482008913,0.27480179609502736,0.2293503027521448,-0.16237733822322936,0.2168106796011017,-0.1433990556689114,-0.18993089831607832,0.1435035184796707,0.20032577161874912
0.2397888401669648,0.04977278358442396,0.10875092515949142,0.07955089288166335,-0.16516919213289505,0.07518273024425154,0.20273270216180855,-0.14541455614544077,0.19084516871010376,-0.0038293184696268634,-0.20315382267837664,0.22730606843430762,0.060942741893724506,-0.036826391565937255,-0.2726468930283255
-0.10703432864581473,-0.10345226757278864,0.048377379427285545,0.1775765547702635,-0.2950458616740188,-0.03615471034653349,-0.08195261757245595,0.11239638816015834,-0.22466611950560922,0.27239346545643056,0.17065330240284285,0.22994864196604686,-0.2831272190645063,-0.29037166990513313,-0.11705550259870737
-0.22623508473284418,0.18212628474029208,0.11522404404869335,0.08860928799636426,-0.019280388417832247,-0.11093183880359733,0.2585995597788551,-0.07021224826031125,-0.2036807640954244,-0.0941892584626133,-0.17388690720278455,0.1328773090308753,0.2908600777485934,-0.021043259731276742,-0.006997607548529683
-0.20277900228540655,-0.10331260077990125,0.07827863028163606,0.1627305773336119,-0.11384637956513274,-0.020667240648589096,0.2780286401678586,0.0752989303363677,-0.18328258057513896,0.24510878358504723,-0.11166011279825175,-0.07897397607844925,-0.15208777971963913,-0.2043394521703804,0.21758318765952317
0.19523528849896263,0.2772670109938447,0.06473156149037684,0.2744181115069051,-0.15625571545594336,-0.2887088317862302,-0.16884175582262342,0.0729372899756327,0.2537965954248645,-0.07566271735596555,0.02853838881393368,-0.20290475234348443,-0.20425298539631692,0.23783784745670972,-0.2947010018091896
0.29157975404254916,0.017898061746904132,-0.09057521296075446,0.19126129206627238,-0.18576866973168796,0.20814038548490882,-0.2304299983368681,0.1831107756356331,-0.08777843412955913,-0.15715117300702944,0.1730415186563406,0.16497036549204708,0.23309394897549546,-0.12788644229296792,0.28916969366711215
-0.17261354331126785,-0.14103087236132308,0.21746231308592606,0.27596314470202016,-0.28782582251213595,0.11529746894310598,-0.09935157736610117,-0.07198773741646528,-0.0105877762083742,-0.22241030824216787,0.03015844455590772,0.09448651671544811,0.2598208056491295,-0.16211480846326357,-0.17765967493560952
-0.14012982772940522,0.21676118699939004,0.041084683555415176,0.07771425200620606,-0.14951516243965665,0.021141322325772538,0.2669893358243704,0.214589503788092,-0.2966474836297126,-0.2593875348517416,0.20358543966769194,-0.2551834457509866,0.16587849033458807,0.2047121529484603,-0.2964470587207683
-0.26705112458445174,-0.07592129141431037,0.10409458731742133,0.1519247185904714,0.12490329332824768,0.10158441351706853,0.21159940586483822,-0.24874308934089667,-0.0856195812752357,-0.0636838558252883,-0.0944150011940441,-0.27755198029569794,-0.03393617166473095,-0.046871962093754216,-0.14167067284589277
0.22875029747027298,0.19125111699805453,-0.235319705161399,0.2579572123610158,0.08321207285733911,-0.04462736335149298,0.19814557724119175,0.16374673900374026,0.19500489126272746,-0.1388428377129788,-0.2953264268740923,-0.17917766958385611,0.16796174260727015,0.14457211939715825,-0.092975130442871
0.06179283103245131,0.23784842714696205,-0.12865082664411318,-0.13461255251296647,-0.0730362320482999,-0.14991875325044554,-0.1170506228025365,-0.20902172565004873,0.23551620809819368,-0.026671645533977273,0.11510191081596251,0.13885774791791783,0.11258534961250055,-0.07395852878424874,-0.15299446979569784
-0.24826105662387987,-0.203697664882813,-0.012094254919854053,0.05050810848208343,0.06874185575367057,-0.13471341192990702,0.10975392714629278,-0.2474485378464712,-0.16203744244990642,0.06495986283562982,0.16290677476853993,-0.07938872395959157,-0.11690800991486741,0.08498544001572628,0.01830250906086478
-0.22846670336439218,0.012383872255986488,-0.16939423632877562,-0.12245078509316845,0.29375742797242893,0.1912378761010018,-0.10736020420050507,0.28600479941824414,0.21699286025868553,0.2968791050835347,-0.08228175521774594,-0.2663564132247201,-0.1366102930729288,-0.1909367009376196,-0.1757168105941169
0.14126627497422084,0.17625114739561004,-0.13981944684996941,-0.2711427249354021,0.2228311696047937,-0.2151958117747363,-0.07550156002875999,-0.03742979191433882,-0.15311978784878924,-0.001089930775003467,0.19247815700200832,0.27349962439650627,-0.1447805017579137,0.2864671431670765,-0.24226770458206437
0.1688109040754911,0.1630516140252739,0.2200209611389497,-0.14278038792386555,0.2658265106443753,0.11997205942097681,-0.2121748705428444,-0.06730447589836691,-0.16678438730335549,-0.13140973904413086,-0.17535688892302664,-0.10790389125786523,0.07354908605935767,-0.2807913521029756,-0.180965412925083
-0.13432435754449015,0.24726646655676107,-0.024074878226433352,-0.24551021090737668,0.246753208366792,0.040904546094232996,0.014352654345958227,-0.19646141436418352,-0.03609473503710642,0.16738632531758207,0.015302699576582937,0.2508176898321351,-0.245268278147816,-0.15212181034912264,-0.2245664773334298
0.25755574091930883,0.12171124027842002,-0.23587613881460717,0.10667526493930692,0.23375198014617865,0.027809193681924423,-0.11664331334712855,-0.0636934292191812,0.2381875469495804,-0.09815466692101169,-0.2540226422573279,0.1873209209796558,0.11315225556508568,0.23478751421371807,0.2554798263997234
-0.2089726456343993,0.014812551091555345,0.15307125834481844,0.0074740287334216044,-0.044937386724821504,0.1988239641543695,0.18254154772448766,-0.1269179526977853,0.01794034744006212,-0.03819482620169007,0.05493088205182698,0.29539060389034305,-0.04847925770478556,-0.12019558401190847,0.1384376709033372
-0.029654570986614736,0.11176683108798993,-0.23412300509450062,0.11622339310143895,-0.07968633738520423,0.19104837365223037,0.14407697397981512,-0.259847551264678,0.09283704998223619,0.07612780752783271,0.2280481677184955,0.22986269353943495,0.05571192232973465,-0.24237199217835775,0.1932902872617796
-0.21390393843597785,0.27467059668074123,-0.1359372993686871,-0.17752877756427135,-0.00914382525238812,0.2248389968688197,-0.04527849962209074,0.11442168273602599,-0.0956339540270541,-0.1961163671069272,-0.28959320976835795,0.19000690922158886,0.1968113968695307,-0.11443934494791388,-0.09005417263269268
-0.1679526906399625,0.24056339193132614,0.17714082910140674,0.17879850750499626,-0.15003513484474754,0.13315410606967165,-0.21654396438204437,-0.17197894290302262,0.025792769233429436,-0.007486469122683692,0.23636417980658367,0.16230001600763239,0.1218304360560446,0.12078717607238132,0.04544905671483294
0.0009671066098632664,-0.006153425965312253,0.04645975380654636,0.16532468299291342,0.255566991011499,-0.07781893191219069,0.15088236255880932,-0.2428678286599017,0.11573145075534608,0.19564274401485865,0.10257506793768961,-0.14196091079344048,-0.10199987442324757,0.13630632869676573,-0.03132473473966326
0.2095388070760598,0.27759297132786054,0.1755414666577334,-0.21464337033339814,-0.15160518488196606,0.20486206644760474,0.05318238149919241,-0.12541132202536867,0.057343665207017114,0.18939479043609214,0.2732172083256087,-0.16095061513606482,0.09854776601043486,-0.17198887442189473,-0.05713274768030787
0.23507008125845008,0.03198556446731883,-0.20668231504843843,0.23135164921158252,-0.23739768914325649,0.10833289126674044,-0.17156106095610946,0.20544374967086604,-0.03907515470242795,0.0238079344697823,0.000657168703167459,0.2146242390771304,-0.28175362164654577,-0.2596853354825064,0.23745259928011736
0.22046442693943913,0.08860244224459066,-0.29027724284059875,0.2012570805461366,-0.043252924645643565,-0.24012121288404162,-0.1894044621720864,-0.13712279289690368,0.2695109655949643,-0.25547080781428627,-0.21518559278329508,0.14887926345987823,-0.24027578485071968,0.1886826892463968,0.12523681344328988
-0.012695408576960443,0.00776074676007278,-0.08259185736261693,-0.2576109804001848,0.1605892348097981,-0.21517979965562992,0.2117162067080472,0.08667181498926524,-0.17522779210255812,0.21802439351174369,0.21604264504537865,0.2542748069991921,-0.11639564661362445,-0.10121275998906493,-0.10015940402873653
0.10132426751080258,0.07988841958588341,0.004445364189692289,-0.09864933167289137,-0.044501950122417984,0.13187631810416184,0.2074492912964378,-0.107973935140692,-0.17920291809695085,0.11718918608680512,-0.04714870203358199,0.2746737432243807,0.1578342020598837,0.19888864543834933,0.11733183454341552
0.12597529067912774,-0.11030825901789777,0.006660347726313393,0.19055261006407484,-0.2935693394098696,0.28021156571620637,0.06726635351880744,0.2647016236477134,-0.17712148945411077,0.07491666210354353,-0.25190077445292147,-0.11562929878107933,0.06179249852222801,-0.16362699749978457,0.20588566624068083
0.12455365496967334,-0.07028178304202207,0.0827651466594383,-0.23160491547377285,0.07847241867953912,-0.07179302080934341,-0.07118256169812365,0.2977851301290318,0.21021805225668527,-0.15682200814344824,-0.1494628825991938,-0.2487555495810955,-0.029624634782971726,-0.08192923830664145,-0.1594081182872582
0.06442019192183061,0.28594739189383955,0.22639221675303972,0.006802123412245152,0.17785753275328173,0.11189373495959187,-0.04613765124308716,-0.12132857635003425,0.25532185560176907,0.014329944914865056,-0.07821061612192994,-0.10656361596797728,0.10676127313609429,-0.2638740057384677,0.017426179031972744
0.18519596324135137,0.12633008630210635,0.2302818007965481,-0.2908327614063763,-0.12087749343900234,-0.045384534307059764,0.008138683676754688,0.28751145601507705,-0.2442848770519551,-0.187291385987082,0.276034853876021,-0.18665917165291857,0.2504761622137415,0.0791467834986686,-0.019456448748230548
-0.15042687160609475,-0.03882188256190294,-0.12423477187374646,-0.17221218543875996,0.09059201779117643,0.06967999041536865,-0.27346425871696195,0.24625928681350734,-0.09237944017143976,-0.04967304535943401,0.16539554173225138,-0.18710448234821442,-0.20482201075729922,0.15702336317729448,-0.10046330411527056
-0.02883709282272462,0.005983790607574486,-0.03037815317135878,0.19312937047538617,-0.18430868047236565,0.08909559407220558,0.16245787827617486,-0.15160858372434166,-0.040096593857956164,0.21165659918634644,0.013671665799765642,0.26156589619353837,0.18899544337605118,-0.020671091037750056,0.2668707130148636
0.023548339973567,-0.13419535869927032,-0.16778248231193388,-0.15423846431662494,0.06002583932397809,-0.09161366689428997,-0.012664106457943747,-0.06840498328149044,-0.16050889139207306,-0.08749050475420578,0.14031662979194814,0.16767964054880968,-0.20480012376343837,0.17845008372457072,0.12433489163598233
0.21372051164795886,-0.07787052143088084,-0.14204828665263422,0.08042934754741216,-0.2761425269413154,0.06525364832028774,0.147657146374854,0.27436460415093217,0.17882657662817797,-0.12428676241797834,-0.2480588029895976,0.1382055092530659,0.1115796899398554,-0.06426089696377543,-0.2523353139950637
0.16145863175309516,-0.19243568554573823,-0.020286937973916397,-0.07979181282817291,0.22948314428515143,-0.01583954834493745,0.0005319966643013152,0.20731313691190573,-0.1712926086375768,0.28676353121359494,0.14736445298174572,-0.044115163735383434,-0.1490042477639493,-0.2411353070707201,-0.01896243994170288
-0.18687832814602934,-0.04169887950965391,-0.012985026994375516,-0.1278925232196649,0.24542702483933138,0.1332598425404477,-0.06347957788770742,0.214959173520275,-0.20659088953821653,-0.23991345730267388,0.29260482068827126,-0.18439396650494305,0.24433115671795852,0.003182611218039977,-0.10343967180177246
0.29104689042987114,-0.11177292543381832,-0.09360750157180009,0.20438934672043113,-0.21725188179960905,-0.10814722751014791,-0.2506081972997154,-0.2557868932572848,0.278983431904346,0.0902928840889543,-0.2518173278356813,0.02952101672323454,0.12120292646969011,-0.2210468238056721,-0.2475000885825584
-0.05666601298415114,0.1489075954073644,-0.08180345988410478,0.16878423995974742,-0.07010668737119753,-0.2503243124059917,-0.06666566954916386,-0.009494726248535701,-0.13870669022419588,0.04789995122267976,0.02258122597396134,0.16261552914233351,-0.041363650674033525,0.12235885712345956,-0.24163298801491598
0.04219683601473334,-0.25057344783815555,-0.2104591178565084,-0.17474009443777314,-0.2352080998414144,0.11263855879838086,-0.28633531639161697,-0.27580717017510564,-0.08432853675786331,0.18723394475635607,0.04178234647537199,-0.21210382644541168,0.02282998563292915,-0.03944962453667833,0.10032556434217088
-0.12358574778503637,0.00729409466438104,0.11399902504388659,-0.07371110085343455,0.009383170362408821,0.2275872699222929,0.21426854736039486,0.297765530894398,-0.28482092956602206,0.18031737994487645,0.05048676747196007,-0.15658903761157472,-0.11102246311769351,-0.1981141104768948,0.18925962496241638
0.2897074893397641,0.23923929774191363,0.16880290509840168,-0.048105252102397245,-0.27369039516222765,-0.25373691737999937,0.010273949738195731,-0.10098146456903784,0.04221012571835486,0.07341019729517861,-0.23201495061259841,0.0889915152749754,0.16995248278708291,-0.08329574291546699,0.2877324663082464
0.11617204680096344,-0.24426509319013134,-0.19283005231959074,-0.23019358618115138,0.024237167838288054,-0.08291512433670475,-0.1063452845673071,-0.11828730247078656,-0.25181772417944565,-0.27233634046901706,0.2722149521804274,-0.016524833295903818,-0.15836790317422747,0.18935099352610396,0.2896988819752723
0.18904366833114877,-0.23246302205791936,-0.23897317546309885,0.2824888385631474,0.1533052973158172,-0.15666548870068242,0.0633173393579452,-0.2121958502185658,0.20644480474425136,0.08605400640483418,-0.23020551455884591,0.11740383535896409,0.1319908504083428,0.16370038775278778,0.12955784569051604
-0.1810336980707355,0.24532185840498805,-0.01624743810493584,0.01907013934281465,0.07492809822080193,-0.04736109032902813,0.1325703079164629,-0.01764944184736994,0.24740041149879916,-0.17454354348015066,0.19900067375650948,-0.1941980222984741,-0.18596322413300181,-0.2438211449175995,0.018470188466214177
-0.07288273485648958,-0.22854874205294753,0.14293474417880392,-0.2674891806517907,0.10749089735054673,0.2439288783184138,-0.23737795928845215,0.2619693315704435,0.01692362046271495,0.031236441248863656,-0.10329880504729487,0.13238847872140003,0.19238029796042772,-0.1144234428843528,0.24857595281428352
-0.2545194678922935,-0.28922411129071546,-0.16477025422342337,-0.2944507073982922,0.027267946346577088,0.09478695899266287,0.2889456948126205,-0.1542009135322874,0.13922247752400063,-0.06936442250794994,0.0058258077611348475,0.2700410972764909,-0.09320181098549696,-0.2492912984718169,0.07405174576815521
-0.14162751451984992,0.04824166003368361,-0.11249860465104056,0.08184445509869534,-0.026360923819432003,0.2390573950966628,-0.043846972303726695,-0.26656069162380286,-0.1475838410484275,-0.007687378618569274,0.05715273176289614,0.2929180126799899,0.11530048407645421,0.18891159850061062,-0.18984928370866883
0.18802224968700368,0.013444999999801262,-0.15294144978953536,0.26582962795098103,0.10833050940141652,-0.019396883801587654,0.22847467706472074,-0.0810295656550202,-0.0050432613486208755,-0.035298027696570644,-0.0024519992381372277,0.2669702948532397,0.2331244907024656,-0.2982035420731973,-0.0790664478424108
-0.143054916451248,-0.108771259884148,0.10490089492236296,-0.24412669560529027,0.11182644496974647,0.0820703624887288,0.003469049915911959,0.16084602602794684,-0.16280058400081776,-0.23789836387952393,-0.11580882545145012,0.037458512553891266,0.058724549844280605,-0.0007893840398435215,0.06080652281027724
0.09965006772381096,-0.17257365166079233,-0.25506985402427707,0.0975689363856942,-0.12883756858381226,0.10439481146200824,0.01599340012948325,-0.18156919129584967,-0.20974197170930042,0.24325184416746387,0.22912962188628083,-0.16974663937082188,0.01096652873529691,-0.19810954013754983,0.08975887666982219
-0.08592225310454812,0.08479266213271373,-0.18620647014344938,0.21288412876027424,0.15077624329432565,0.20380462600589483,0.1787558591310946,0.2397711976205374,0.19663608837808255,0.21187008059558504,0.1230083478179206,-0.11766828110251148,-0.02813387848162824,-0.17816259100380627,-0.007718423976048605
-0.2931259995393957,0.21321891150443534,0.16087896946252453,0.0950204683908194,-0.022764737261338486,-0.20256782542547574,0.2436449641101745,-0.25653029239938946,0.05270773628280595,-0.21990595340508162,0.10227590997870933,0.01699249902154848,-0.16213056353518004,-0.2420089156259222,-0.2866846273062692
0.14671674942335478,-0.23347951089041438,-0.26228357730916274,0.14073048054585358,0.21965540547835466,-0.1377753093393698,0.0981010257861859,0.08492696912140946,-0.11351750343724515,0.2763310911706141,0.27221148179503696,0.2601398898639902,-0.08068712028193042,-0.050453592756392884,0.2226311128699381
-0.22802428703895658,-0.12081112388532454,0.05148204630739015,0.25966398577118827,0.035479097401995896,-0.14676088262664863,0.01244752169386154,-0.10793058807452277,-0.014160148402990402,-0.1553983855313908,0.1437119416185699,0.08023314769733214,0.1797329825677612,0.21185116519527308,0.11664204707312432
-0.10574637140950248,-0.09682956011712528,0.2408744200882217,-0.08370533005687093,0.05327985357142983,-0.21484868773991556,-0.21914317593315003,-0.23493091713606185,0.02873512381787069,0.2110814086634128,-0.07573198476911405,0.049953962381584005,-0.14190317145669348,-0.2641183135002215,-0.1537528079077701
-0.06713302372144477,-0.06089076797816268,0.09979370996989351,-0.245502582627864,-0.02706837713469634,0.18498261064344895,0.2403426215559537,0.16115883866246833,0.2563287173994319,0.2520915407927468,0.12511019204846802,0.15512624729034785,-0.19406266757437718,0.2275316474124039,-0.03118864243049746
-0.26624458474887586,-0.3413960120468077,0.15550067989817923,-0.0033561360571263193,0.08233523553628389,-0.7613372170173224,0.008691193385349405,0.26597707199394244,0.03925419252253154,-0.19723039990540212,0.7028489138215721,0.014356223771848309,-0.01746605082685332,0.264856928216402,-0.07986828636518528
-0.1531429359942034,-0.1885372390297436,0.16471395282253837,0.04516281718761229,0.15241009848126877,-0.08909001525079122,0.0020440453394688363,-0.12571173561439813,-0.10952237909232154,0.011374924094954402,-0.10567125902975866,-0.09253203375879937,-0.1542388488473673,-0.15982731271490547,-0.0006632411179071651
0.2252606186349874,-0.0406357875413782,-0.205040226418622,-0.18117283977193296,-0.05010825604377971,-0.09754264634781745,-0.257215048270011,-0.270445361508249,-0.26834618310202335,0.13214939407886056,-0.0516928128985498,-0.008470512646396755,-0.19552650304374514,-0.2412951665883578,-0.1631650582696144
0.22637916444402909,-0.29758867196741784,-0.0627678098391456,-0.16250236642070653,-0.13561920467618463,0.10341804095351842,0.1859843723330058,0.2354690972163202,0.2860123543116994,-0.27363982526802927,0.05859222030529753,-0.06330964854168397,0.17434613446309682,0.1273617094872888,0.23301120937193326
0.17050755477481927,-0.051801474174523215,-0.06131915291743369,-0.007458403346605083,0.22772774444036764,-0.15603398627136308,0.2169239124705093,-0.12993504204603343,-0.07856374694955157,0.20440465186864937,-0.20056652402599964,-0.19701798285268768,-0.026425580022081063,0.03513591989957199,-0.1675640425292171
0.13093195819711534,0.2625980984051393,0.087614357547736,-0.2785256126798407,0.08357994296089466,0.23658209395854451,-0.13596292072139235,0.29041620674243157,0.11598509735888479,0.20642120792215807,-0.09688630157944092,0.299636156242655,0.2829880159894254,0.07031234122618457,-0.06398844339736137
0.1743987949688401,-0.21868762428320476,-0.08748788335978253,-0.23453021196130824,-0.1458263572978524,0.23178266453166868,0.08426994829135637,-0.23828745299060466,-0.15724278699960323,0.08584170413635689,-0.22372530406547853,-0.062314956465510274,0.2380009844521111,-0.0885529235004425,-0.12743529168585352
-0.27394380599064216,0.0163089985771476,0.220939640422605,0.21211264017030468,0.06584443883781109,-0.08851199412475368,0.08602638401618334,-0.11235939913316487,0.1201197551476812,0.20099839375031164,-0.2923672204739256,-0.009907745633155107,0.1904430186788288,-0.19332073553103657,-0.2585601114466088
-0.025616573629841953,-0.11104281513853315,-0.009949212919614425,0.21073551578560207,-0.2934081197873844,0.06215805561818577,-0.19234030848650413,-0.25423182784585924,0.012848020890818601,-0.13195215906916163,-0.055675610220814735,-0.10105247597284409,0.05748530655692213,0.1281950336048857,-0.277915024278919
-0.21987482425611726,0.12617275789941876,0.06590413355597996,0.1130091913230063,-0.2258151055737578,0.17245831426934816,0.23663285124288197,-0.0326701716518254,-0.06434036137674576,0.04484329045479152,0.10104367920599135,-0.21716832420103294,-0.10288420283778132,-0.0356430252723014,0.09013506378084035
0.056766539322352205,0.23777498227012128,-0.060531606439130636,0.24568225534471427,0.20784799032454776,0.20033890813324579,0.15884346487645828,0.035599436680609886,0.07911768191611057,-0.18082056008207498,-0.13253189082339525,0.09233511202026684,0.2210620836989899,0.22843663215740811,0.06227486478794414
0.19516990631171033,0.2959879279871377,-0.03675501283949867,-0.11993449134559256,0.16645734946430585,0.23808280232007778,0.18592147057166702,-0.24841681719473227,0.256995549076329,0.04825402133345297,-0.10308179898866873,-0.16566220639172718,0.09595902216839114,0.2505652127468739,0.07111749289069835
-0.2747991595706094,0.08517797867435307,0.1300913055204283,0.09068088895731667,-0.1743806241445304,0.21511589586155283,-0.2984159428954084,-0.10091973839650054,-0.07443642097244046,0.17519440059732533,0.016948255289297793,0.03958285145782392,0.24771889505891526,0.21373522647108195,-0.08473707105549838
-0.29701370790104026,0.06704585902587148,0.04362410519227233,0.08252526948342824,0.07797439269318494,0.09521363425651141,0.20090560483988257,-0.1433006179960356,-0.11998303667816909,-0.14315838025764496,0.17020262523648827,-0.049191893118294194,-0.10704470113018685,-0.09067252302001286,0.18423831605445068
0.24879379578673572,0.0350809534302043,0.09224549908484769,-0.07218675870365152,0.1962971173026855,0.28742195231352635,0.1293497993741659,0.2592364763618687,-0.1303826819102332,0.2883642356180051,-0.126480180237066,-0.16904998007466646,0.06915052770000069,-0.03408107471339217,0.07141531354811798
0.21816283993308694,0.222425173393109,0.06179342682360278,-0.016693733328617677,-0.23444723739201964,-0.20472904972307243,-0.2934972321523303,0.04727302261958477,0.19431202428560074,0.22864816750418165,-0.19906457028500013,-0.06279497297130923,-0.0654295717680223,0.039593607792542396,0.05290203192980847
0.28946614741108273,-0.19218629120777958,-0.005678827475926684,-0.25706988427671457,-0.2296085693415839,0.1908898820174013,-0.13007299231715386,0.022160180662798623,0.28471993862506156,-0.08146745205573805,-0.22307180108064917,-0.11767996710506998,0.12710492716402788,-0.11788210034209459,-0.00769328731331298
-0.11004303827010652,0.15386972532191417,-0.0438037658985132,0.25195192690851936,0.13707281796055726,-0.2769599968776163,0.01920151614958504,0.09189029659203429,0.02252149475028381,-0.08035239054543628,0.00216516180175657,0.037121353608772834,-0.16510256018136885,0.2794724741466344,-0.0002154304560211262
0.25686729397618197,0.10265939100087476,-0.29895537887603113,0.05741143914239778,-0.2012053632952761,0.05200987202687497,0.2674369728546508,0.06630322440687964,-0.09403886563409175,0.25501171919564064,-0.21091387551790955,-0.2331259468255717,-0.23223814851504132,-0.025923540743575002,0.27862628567897985
0.25956529642395615,0.0011001318962751562,0.2434935960296228,0.07690492565783771,0.10737558275898834,-0.24736972661950807,0.0866256668710752,0.2700715308613843,0.14453950543946942,-0.16532523667705276,0.04250009074639904,-0.04737398199767945,0.21580552966405492,-0.218919768479191,-0.12420397274270543
-0.24355784161519356,-0.030225261751628277,-0.10532896512187392,-0.02064921411341731,-0.15633655892324375,0.022170176014906902,0.09633267452263228,0.050684879141278616,0.16120807480384514,-0.18158988128058035,-0.2717672213277211,-0.039901355160132324,0.011373787015764913,-0.10209425083818693,0.20260481627068064
-0.2722818873996939,0.22765070285050554,0.0721809175418445,0.1255093728569297,0.04812345900514314,-0.15536156132851875,0.2265473008416357,0.22255216394349903,-0.0014884443770342703,0.13207504590802255,-0.17176100655057627,-0.0020874485972141033,0.24370518998083007,-0.1094620863732906,-0.027229924017484485
-0.029554188344894206,0.11895524435621574,-0.18728433487457052,0.05808370601422441,-0.09990944603359603,0.24486811803133973,0.21922606196609623,0.17045506095813423,0.06356085321087807,-0.09336121592324259,-0.04524989790135423,0.16499975862701566,0.10404357950535703,0.17610249015684865,-0.014931755723956053
0.1832717805874451,-0.08173887663275577,0.07847781484856933,0.19972773510935554,-0.0647988794352865,0.07401662826715028,-0.11282986592533778,0.23423770393807458,-0.048508239372570205,-0.10005580341371403,0.013913919782132462,0.27979288839669775,0.08714945703223487,0.20835938269955417,-0.16806158350230044
0.040928076572251657,0.01116187197268924,0.27983549035233407,-0.24998096177983406,-0.11056420828730451,0.15119017794691958,-0.2625789148027815,0.2560917171610649,-0.04505635678344394,-0.15742816627848014,-0.10912354854453286,-0.05063306749940924,-0.11554286917673212,-0.2327084114441263,0.28722637154578223
0.06450357801197852,0.1538020604132035,-0.0959981537823506,-0.041768561149251524,-0.0276663834974617,0.29188506604028136,0.20682884636127058,-0.19032032705830138,0.13769824244908524,0.06487982252304891,0.1657521630439648,0.15910339202423002,-0.09018529593647767,-0.1975734707512724,0.24121022381723958
0.012811116668897383,0.22634642608150873,0.28609642191608803,0.2604492238631852,0.0608295615539296,0.016470947402012,-0.1394246572342316,-0.1347609178547584,-0.12936972559737583,0.02489150498323578,0.25904469505921246,-0.2313517265767033,-0.11258261835457262,-0.018305185478028896,0.2871049410825515
0.014608120935157455,-0.05592613357081144,0.25783340219009937,0.17479846309552352,0.022215364290356567,-0.4823284373299729,0.07880488266878782,-0.12963222208490885,0.26035551899104253,0.23582483182338282,0.693418062964474,-0.06336054810471176,-0.10645035447954412,0.2644747431270234,-0.2184574290167161
-0.15369779366728045,-0.22581978306322956,0.1991625871732775,-0.2298017752066011,0.10173701342624733,-0.20045023690393582,-0.10457072107488799,0.28058728248349635,0.06200359399092681,0.005107436180796993,-0.2923652232934611,0.24450157026440617,0.13241231931719072,0.26754432153042745,0.11065200505295991
0.2747270691326323,0.2404380511505311,-0.18385827386494324,-0.10656579065132742,0.1395811895380535,0.13375869662571271,0.24121338703025502,0.2918927495813612,-0.016161220629714645,0.26607352003750845,-0.050580721311559496,-0.24738089079291228,0.2485972573779221,0.2678288695199334,0.07038252115637583
-0.15388475215256706,0.12925698074045197,-0.2762862361876858,0.05631700254235751,0.15274735946019316,-0.28516793131304424,-0.11757496419304381,0.1901569669667802,-0.10807377929748732,-0.04728038799429157,0.1640331772568997,-0.247468841894943,-0.07673203200022136,0.003908084701146897,-0.22085333556517833
0.2849074060071964,-0.162659514575788,-0.17109019182238797,-0.02256283102980923,0.21403307499902163,0.12707096106990956,-0.10822941028225688,-0.11705266184870528,0.2263794130248737,0.05128718427032447,-0.2426577913001465,0.15846930705078727,0.25859348159160184,-0.05170475350721143,-0.21614917265061345
0.2562653498879454,0.024843745791304717,-0.20661291340705376,-0.03520254411894965,-0.26754169432734626,0.23605890713572214,0.17839516593021654,0.2783652833586921,-0.18480238800550092,0.02875229032991128,0.2563957178113057,-0.17233167651175121,0.01724656936402358,-0.11829037217252189,-0.0492803690348208
0.17149039650078468,-0.27641213881631527,-0.2169428327778625,0.037015823375490815,0.26813591179150975,0.2021013297272229,-0.15955284989956642,0.016479140707332418,0.25529343304931723,0.19998279797361673,0.1696973082410979,0.05436760843223154,0.0017951210139733331,0.21849898225319359,0.29591608138327524
-0.20813299897293244,0.25320390145853633,0.09624842764172975,0.018195905517943645,0.22201108105855144,0.09389207796219451,0.01166804200978333,0.1944100595637936,0.2528209756249576,-0.07083492165804697,-0.27743652501861454,0.20553999314053367,-0.09409281938402372,0.1576528221099483,-0.2775398703238153
0.25392443956199745,0.11317329331323898,-0.06071293438019209,0.06504096124711828,-0.05555736037327841,0.2325970566641648,-0.25507347683516374,0.04658980010862601,-0.051074800814549404,0.11535658899934603,-0.20863391523214408,-0.16037628875519563,0.1240393860731906,0.25363896201237596,0.07132992859712844
-0.033608695643906956,-0.15086077274751689,-0.22076204936620575,-0.19184141807741462,0.22702685132735184,0.06919790798540924,0.04592877676808094,0.009622594048804778,-0.10771358186878768,-0.09605621608114523,0.10313406212304554,-0.06401352166906171,0.015586328139669203,0.020247002666757552,-0.2217450356314495
-0.14517732341738546,-0.045819851675062695,-0.10091652678610832,-0.2822211522348496,0.19529289270698547,-0.09839003026047435,0.2898014959491299,-0.1457629993409675,-0.2894216504529763,-0.14609083660168976,0.026630813520302388,-0.155305177555663,-0.2952590195800246,-0.27784514408439903,0.19453674458947617
0.19726010659065663,-0.08427492879047928,0.07901099495548525,-0.13544800994537565,0.050783852306511536,0.20718079232276004,0.1216257735916767,0.06551573013082934,-0.07380221797506828,-0.17585599205153624,0.12065616499622463,0.2221713057578873,0.04778668600766284,0.22953531342325245,-0.19817928743219904
-0.1814824697829846,0.23646483786539665,0.06613976843046476,0.2998912230686365,-0.11017366298219769,0.12884837127275944,-0.04852055086253515,0.019513383194440403,0.10126418555845645,0.1321830990255547,0.2565251432555371,-0.16858611785985247,-0.1799711649892507,0.09353561451699965,-0.2171950498741475
-0.2243338749874867,0.11366469357986282,0.18223994040173297,-0.052354692326855634,0.17895089237504952,-0.22480501941483527,-0.19120511357094006,-0.21943906923796702,0.1863456634058157,0.14706615390803246,0.08470550956414569,-0.06281838675763979,-0.11171714636271202,-0.04308191716609361,0.2518076541401126
-0.16087375536328946,0.02904903251029004,0.20826420332206347,-0.20083460693164,0.256280550069104,-0.14673197053660963,-0.12267637527271116,-0.19213569978225148,0.27079522442396037,-0.04832932971971027,0.1773068510396461,-0.14326640658251263,0.2702998244829748,0.29649559593515656,-0.1532669581782293
-0.14326175691855444,-0.25125242941451953,-0.16057444619436445,-0.22441535418346786,0.009051062216844707,-0.09016308707933396,-0.02542178739024542,-0.15473120087423092,0.05798197664736726,0.1517300943890647,-0.27841728096360047,-0.09788750104845817,0.1336452236800974,0.03694382429516796,0.12262751463493526
0.06298834674243886,-0.140503666611149,-0.10578454298927106,-0.1523960804239718,0.23491299221503353,-0.28539918239865075,-0.2891828774531018,0.1773396784673833,-0.13222656596037655,-0.2321302833434537,0.24099921212578623,-0.18520002379876532,-0.24823604409671488,0.24714710265737488,-0.22146520244443557
-0.12425291895662124,0.23623500335476363,-0.15306986845690745,0.18655074830554158,0.030599618051377453,0.055518060991348483,0.29493914549776473,0.2035549100836987,-0.057811004901648255,-0.2910619433706625,-0.2247472582780548,0.15610761454128408,0.19594340557795992,-0.204040810193823,0.05486199534306979
-0.11536093888020559,-0.06729231794938773,-0.11581663351162463,-0.1500073520308482,-0.18668952101273895,0.2867726507388282,-0.24061653625575563,-0.24507511632254533,-0.2733571559210691,0.013380006721871507,-0.11293960568181126,0.08172772438465381,-0.15588089807022001,0.17263699585894104,-0.09076769127965742
0.1503887505887125,-0.10992208383630662,-0.2447669072473295,0.299811379913509,-0.12002613692716686,-0.26138963557568445,-0.09733966871395047,0.0012143938567020784,0.02190013687246173,0.19760665983220432,-0.2582190748611943,0.16898861390054454,0.2371965445785043,0.1352784896062575,-0.15443209975325026
-0.06428255142223495,0.11005001780639181,-0.23973996773529813,-0.14900558127803476,0.14554499545334892,0.17701436131370307,-0.1824410693404692,-0.22487650426271943,0.18071822993614,-0.018729021550924707,0.29393759776964107,0.01602274603391457,0.1276893651928095,0.2134302196901296,-0.28961558396168335
0.07646257479464673,-0.034518942951540836,0.01093736089559095,-0.19069224324627948,-0.04687832722534363,0.27064025648413964,0.04613780606522094,0.10500109270035524,0.27214243808138133,0.25542549757729655,0.24229456901503124,0.12476104501270041,-0.13512520514389406,-0.008060011472357964,-0.18860855626056075
-0.1678792772371467,-0.26356920267818446,-0.16078819720826976,0.11654920523396667,-0.24223323032392396,-0.10137861203121497,-0.1159183297474618,0.24677590068984517,-0.09512344628659342,0.27069594908295086,0.010560834023638397,-0.07314292215393423,-0.23551206766150398,-0.03975673979997335,0.0015559401770409078
0.20160504045346123,0.16178299906256605,-0.278321097683279,-0.29625134855667207,0.16751851297879833,-0.0726710243593291,0.09237284269939977,0.23845238844009203,0.017558703742619253,0.04558296176532989,0.060266664646786317,0.036328084745182176,0.1392200247101521,0.014718037587882371,-0.27063785960961084
-0.12302967878826632,-0.2469592233441335,0.1065906691462267,0.038679076631733054,-0.10619454740354833,0.21822087945256863,0.16613892641707817,0.2538726661172666,-0.23396979086977526,0.2887738378750126,0.26725987622390535,0.1846793470388603,-0.05604248840262799,-0.27154246859559866,0.01849693167618159
-0.11534531954671233,-0.2708297805235139,0.1363377400101685,0.23972035965158742,0.2894286112570704,-0.11601906960385241,-0.049245928996471844,-0.13785180139019668,-0.23550304647960849,-0.01220645896733219,0.2881961739790064,-0.000985475233838129,0.16349169637480404,0.2659425557547496,-0.2201827508897869
-0.12342965330667581,-0.09272909974857817,-0.14374035426256496,-0.1133600774865596,0.029208720474405758,0.142965073871073,0.19775143179281846,-0.031166932748756038,-0.2391670968037511,-0.16942452107050443,0.20479728317689297,0.12892505636970147,-0.2333306755765921,0.09169702667373447,-0.2610221302925066
-0.12074239636842386,-0.26999744014469756,0.05746623087312208,0.057653965395220726,-0.141449481332944,0.2351432492913619,-0.24048182792505335,-0.1831597497396807,0.11508787976001955,-0.25774791482629783,0.2342634146411125,-0.19606054861240163,0.0976380983645726,0.10137555352948818,0.01864673170845052
0.12376097591354457,-0.24891030278446866,-0.28560073474515785,0.08693469869505932,0.24008425171896236,-0.6385209179514831,0.26314738534079957,-0.07815949518849918,0.08762599331135568,-0.21480272288845298,0.6817503276200535,0.1657547267614174,-0.22807537787947108,0.15742469225822614,-0.12229346234255525
-0.00848924647865823,0.1485312939726422,-0.24408850322566966,-0.2866335787944008,-0.02151885979928278,0.07874420903993096,0.07442743180178152,0.21646292491607538,-0.22726246868985808,0.2278001639153287,0.15529946956372348,0.11902759889226666,0.07967328429178155,-0.20769175008817475,0.051472618609029686
0.019386214461489026,0.29524651927956874,-0.18568040920966417,-0.07325992261026802,-0.22687241518948012,0.16528847857163453,-0.09795155855112889,-0.25588732477926845,-0.029699187783237768,0.17709785669637357,-0.04772454357590533,0.27801746944301503,0.017927975197587098,-0.18433151945578186,0.25578119899636803
-0.0016758949609779342,0.1667604674927347,0.20990968922798642,-0.22011659920077123,0.10425175683817237,-0.009133298363119926,-0.20507355027338187,-0.039924736188752474,0.09825209164377102,-0.19185910045293814,0.24533235662026215,0.040415357324555645,-0.29325599036580785,-0.13224437518098706,0.2160153448771161
-0.1442526980699952,0.26990632132244563,-0.012384275000954625,0.15751292032508038,-0.18625671355970022,-0.19324312730844223,-0.028609670057449743,0.0548081191740028,0.10058321279736987,0.23849915271626282,0.18052948400021024,0.011986983455430533,0.21931607476553033,0.21508654207615058,0.15922132403860662
0.2999741653690392,0.047268507032977435,0.285549677331588,-0.19536074748206086,-0.27077532873516463,-0.1551114282710403,-0.17952016022857153,-0.012602346009282006,-0.18664539435858152,-0.1580410191063782,-0.07331962767330627,0.11611614590273489,-0.007354123773073873,-0.2808641611010763,0.2136212372880832
-0.1901849032312053,0.15117675499111058,-0.03799618469609556,0.22368921453239246,-0.25566901099332073,-0.11914267054255785,-0.0173156068366927,-0.1306727891708947,0.09703814594428284,0.10648399317858803,0.2856561192605701,-0.0933427988148964,-0.06166901391528265,0.1998834384905841,-0.14817526911291784
-0.075620727694833,0.13328078866460144,0.1033785669119004,-0.28124432606008753,-0.15436324936126408,0.19779461607257598,0.29469040953535935,-0.1876396308324877,0.07199112724404977,0.017568561967474916,0.046973552117345,0.22890706309148995,0.27434227457445975,0.021557192374713485,0.05709703620668949
-0.24346974427893026,0.10588895520672169,0.09207011596210612,0.18151121570231027,0.2945309043470829,-0.21180601043023126,0.1437098880738511,0.0769146838933612,-0.10407981192660706,-0.2810752651062865,0.21471792854227212,-0.11961393015642485,-0.1514317439451901,0.11812286234729502,0.14482754031280132
0.09962861984407195,0.04393802928306651,0.0792015381033892,0.029953840093670192,-0.09073051382741229,-0.05461140479455778,0.1864593094649914,-0.2124203986768098,0.13160752360846667,0.12914558861485065,-0.11323709298683346,0.1628707298505903,-0.16208379096445583,0.1104044559584404,-0.23745607825458534
0.2054139131667027,-0.2953913240853142,0.10335067898022315,-0.2453899565958293,0.17619031805800617,-0.19467601259853026,-0.21218003117034198,0.22048281343745108,0.023687991025967525,-0.13155115082508786,0.24233475034196594,0.12651985435033253,-0.16150061995930828,-0.17395986408912067,0.03641525607713897
0.1906335272934067,-0.09025477925781451,0.17388307486397392,-0.2996519958579775,0.19831258755360942,-0.19282964396358293,-0.13219528848226786,0.21553659458164715,-0.2987475421486804,-0.03937429364597689,0.2511014673240609,0.19266717728416727,0.2823159510052747,0.28881590059211576,-0.1393442728574758
-0.04165451497449357,-0.22240261743001039,0.05146135738730568,0.15554345619354243,0.2514519181926413,-0.06346028630962389,0.1863665831849743,0.26549193072508775,-0.06708057179849441,0.158158739580044,-0.10457719838343517,-0.08937019296495968,-0.06039145636982163,-0.2556184475196207,0.028000317380772466
0.13629677677148233,0.1045538545955331,-0.11215103812009738,-0.11092329387741322,-0.25251789948858483,0.10642561229129055,-0.08108531035062563,0.24535815077090223,0.21504447189761905,-0.28671160013772873,0.15311679548420748,-0.22074969102878378,0.24557063743028112,-0.2742808254907951,-0.12672502960963214
0.1819921324098165,0.1450178083806481,-0.04292043943573931,-0.08908839837181455,0.07001568590075373,-0.008593235620352578,-0.12937245740920747,-0.27129138492918065,0.20823762312670585,0.2306569559368758,0.2854649797741967,-0.08912963849887093,0.17434114005971985,0.1256474095869644,0.2008616118095689
-0.14113835546206507,0.15842415847798902,-0.17336719175220125,-0.25851876477906716,-0.23984947444186247,-0.009214048082544946,0.04354442213594417,-0.11012817679486273,0.1270435674464468,0.21258597219014802,-0.10664972921914057,0.22925448796270614,-0.12713089993385596,0.12457434290585001,-0.21571926884836623
0.17532028043075415,0.2868971907724373,-0.2929465313897998,-0.26887783195255793,0.04586033231100495,-0.22051955585050276,0.26119809358540963,-0.10762989463343192,-0.1957307038379103,0.22991445834841234,0.003681299147424044,0.28834393678213305,0.28672565818919954,-0.062332433262202,0.20009629969434234
-0.022230881249915513,-0.07986588233153499,-0.15566503867639161,-0.19923554067317278,-0.02224207604847256,-0.28778267760114823,0.008440951169870425,-0.204687608028536,0.015838473845455447,0.00857758605699005,-0.2768612709045786,0.178701003300259,-0.24273273807832285,0.27931905266558626,-0.24659856994992746
0.12642088500351434,0.05906281055444981,-0.22178189582844104,0.1609328503617875,-0.002528865019356452,0.10685232712630803,-0.02422482660190506,0.011737568376633312,0.16291390285058543,-0.23679185328537605,-0.006769233523286769,-0.16088621929474634,0.03242498458569015,0.2503863035574401,-0.046300486851748535
0.0033365794205936503,0.24534893584995487,-0.24557805685031742,-0.1069985004627877,-0.29746196720303125,0.09864003915250048,-0.2923671012389938,0.11042205388878046,-0.19904635535727377,-0.2717016063069152,-0.051871551117602936,-0.20307207010969594,-0.019590484716346945,0.18265184700343917,0.08637650827430478
0.27737335375805733,-0.08479225642176232,-0.1881110981469347,-0.2844289526573847,0.025057223746535465,-0.23192421111472375,0.00733040007244351,0.2788736321163742,0.21567913928162724,0.06012460575802242,-0.19626515014581647,-0.16583735464793378,0.26658972993301694,-0.13277707030294894,0.17125475466202852
0.185569810680095,0.04917830776580624,-0.15293211544658664,0.2831795733702684,-0.2918377594098605,-0.22331401478289037,0.1818954937493713,0.12618764219363043,-0.15174252485036205,-0.15790875268779794,0.24721946585328128,0.05124103032912691,0.23340783159763084,-0.1000804915427404,-0.23569788437214326
0.2955548570351834,-0.2300262974553415,-0.20095783644604984,-0.037229563248789774,0.10234536085665558,0.15955603831810133,0.21002063353052086,-0.028314836797160292,-0.14098283826914842,0.08371049921928997,-0.0597797356437454,-0.20017110714431358,0.01190211170622224,0.19220106786631064,-0.24003800781290585
0.04815696436472722,-0.10593289364724454,0.11762679995735181,-0.013288700330072234,-0.06807655358724651,0.04195652960599289,0.12325105612790888,-0.07967910587730453,-0.022139954041981158,-0.21295348338108372,-0.0577524316979347,0.08625906106809128,0.08274154184528121,-0.04782792871632724,-0.27899441551999826
0.1544960913562107,-0.016139441284145434,-0.16019067115338959,-0.012007830392813435,-0.06663735164178913,0.2929041047073852,0.044726116573792885,-0.014185537794065672,0.27332718823147434,0.21387738115725613,0.2130724719772911,-0.2560935667437552,0.06447052008588783,-0.08288396519150787,-0.015725438413458984
0.19285656645377638,-0.29507826030557116,0.08602292268157166,-0.26986008036070375,-0.2161717133598515,0.25086171402261287,-0.016744098899507898,-0.13628939542286975,-0.17343045896545625,0.032821032587316945,0.06301285356357465,0.2882413695858472,0.09326209334477042,-0.23594583009809228,-0.20088215692160638
0.011156238221124538,0.23773828821059012,0.09840090911335533,0.14749380281889107,0.09795107890359633,0.10119529521592158,-0.0894349562896102,0.020295464023432297,-0.25627885322135063,0.12788350919620795,-0.2830702810788392,0.2702998985136453,-0.06102565926481232,-0.24270976810130393,-0.2287594975755708
0.06870028995286472,-0.5244654903281554,-0.2938311946235706,0.06315173084391475,-0.06994898908041272,-1.114872585100039,0.11905299718928891,-0.2084046680767607,0.2344061617471605,0.29668021648057546,0.7121818549819583,0.2804751366873602,0.19907371405978552,0.16443744116495113,0.024753984775618385
0.1107620738002048,0.145871426468093,0.23418223585850034,-0.16031995705829005,0.07106890951109383,-0.20837546370628707,0.22763126038968712,0.21936312874297054,-0.08319032102089802,0.09100200182963325,0.05904799828952111,-0.014915763750677768,0.16774606902109795,0.21745807437721382,-0.26262221548903325
-0.035492791248886005,-0.22826997097757207,0.19647167179201627,0.2603002596319242,0.2560626855723546,-0.17608050832856534,0.011543386024427948,-0.12789123431758145,-0.08290945881342543,-0.010258690312034413,-0.26093045009410654,0.0692653801243448,-0.021645057691627057,-0.09449842311270185,0.17796357432499046
0.18057279268894944,-0.0755950733660401,-0.14199808802071945,-0.26957034970376714,-0.2396452652681277,0.013130449548695744,0.03394510190667799,-0.2968178231181907,0.010523486908854851,0.10150666242439921,-0.1892691429362925,0.1760631994388403,-0.18777174765619026,-0.18048434493068194,-0.23328094889914067
-0.17446910467066856,-0.2932500633437563,-0.2183852654734778,0.04866905136880306,0.2190694953475144,-0.025599902338300173,-0.0318351264530084,0.06961698193758903,0.26867646584444355,0.09866754992552706,0.0757321088789138,0.024813241550905474,-0.08883991299883659,0.14055810833390808,0.24929447341876282
-0.23596817069871734,0.10527028042805991,-0.036327960519231206,0.09048640262434575,0.16339066773313968,0.025794773595535114,-0.21354737948745145,0.29888052195811193,0.17176138729376644,-0.25498620621884366,-0.06930294996608945,0.15113184941197894,-0.2687374906900067,-0.26762239348062267,-0.02257478878655267
0.22439021554945526,-0.1536430985267076,-0.06329229746226803,-0.17622897737644821,-0.24960201444018307,0.26644319102692254,0.11001093278541463,-0.025796273916512846,0.28273087108862655,0.08905824827387498,0.1591546557548765,-0.19845715372214845,0.06567429606063108,-0.15479805080598813,0.2244971471574126
-0.26913792092528616,-0.1745256584223678,-0.2061194904123017,0.1687918275782792,-0.12329703956210074,0.08209424203911923,0.19240830150925542,-0.00490264012716457,0.23455319499041255,-0.14658118721355456,-0.19045617337439397,-0.2635460173694577,-0.08428728454651371,0.25323531980731256,-0.008803320403721726
0.20104593262675252,0.026632483420319892,0.02388908772072912,0.010082521710226075,-0.12739377876854074,-0.1602838961844307,0.018627026744977515,-0.0006910448903194033,-0.019170702126441785,0.01403495154875306,0.018486666589105808,0.23744876133239184,0.2643438363837434,-0.14754275440541614,-0.10349880426239999
0.0018645619951251358,-0.22503380975305137,0.01125297789891655,-0.2027641817937344,-0.023375859836482882,-0.16824344520248788,-0.2837884755712281,0.19370095383679387,-0.20514843074482186,0.29340174827983684,0.17530714165925426,0.10581039425142119,0.25924834825464654,0.0009630097467504539,0.16899912153893187
-0.25294825416939754,0.18315186080383516,-0.037399390293117674,0.23453346634575162,-0.06804126690898143,0.12368794670074035,-0.02591300342734998,0.177790160562941,-0.049948309413211545,-0.28041152912368955,0.18038192664868263,0.028757473171613757,-0.25931021671142773,-0.06736396092186586,0.12290687883710394
-0.05862432822146357,-0.040165057841804505,-0.17116132324341457,-0.23101863233991082,0.23410794579884348,0.277638951835215,0.04156067888334125,0.05305560666852782,-0.02938226534415267,0.046224346775400105,-0.15757628442502847,0.2043734426892096,0.08966719456303118,0.13326474617565465,-0.20092446454848775
-0.07108609907977788,0.14028661022819452,-0.19586984842803243,-0.06526182895842131,-0.2586383920604904,-0.09216723294892186,0.2074135326907987,0.1502948731005565,-0.18918977417170374,0.14264736004171696,0.012493507959885415,0.22673997853484024,-0.04108481383623236,-0.23506520829588634,0.03080616540458181
-0.010689704075657403,0.2230343460310303,0.1474828038113593,0.20935404363305582,-0.09570013790303797,0.010921772158962896,0.24504096189283048,0.09121275693359115,0.09295646776562011,0.2365995245461952,0.22019221862540192,-0.2932956754699299,-0.23672688968673677,-0.10671910629898584,0.27486988440063304
-0.20522785804723986,-0.05013731265890628,-0.11263557047180814,-0.25083849035975564,0.11646521889306927,0.23877597347085006,-0.18907391225058098,-0.08668486660563571,0.01694744198547732,-0.036539306642574765,-0.04515263872178915,-0.2847461826421728,0.1570199964504974,0.1400112518955018,0.2141589883477119
-0.1806617955901061,-0.27600609093801687,0.11842669180064025,-0.24747758423125513,0.04444248628678049,0.019023465851786048,-0.0643357126357072,-0.1400898188576294,0.2738888991035782,0.17604825701796167,-0.038110416290150655,-0.2577833253396416,0.08042360914366758,0.06541349782697559,0.17729397687282017
-0.2385962455555379,-0.05236547518079047,0.08762362300098309,-0.23161019621707654,-0.13365128465167347,0.1302492534782655,-0.12621799144250676,0.2587568736461851,-0.04474992389045296,0.14736772861549385,0.25566464299617403,0.03128165490441953,0.2973231933527604,0.009373121027929476,0.2522875009462326
0.09759046906705876,-0.015770870830309116,0.06655383312119745,0.280999116732279,-0.19315789780713732,0.19148251538516387,-0.23828201678605154,-0.0420011839771674,0.12679987604769138,-0.20977381138662418,0.10968090605982794,-0.2983850501704961,-0.28279407987213157,-0.05227137809988677,0.11416158494743445
0.2133015428156037,-0.2583567369076847,-0.059407594352863025,0.16414020082502928,0.2592525316821123,0.1280359451995322,0.18230026129226523,-0.2985995118116737,-0.053091584578771334,-0.04719911490002737,-0.019291682719497882,-0.2880959370576674,0.2308330419432188,0.20772834928201905,-0.0770687443141688
0.2679616983204885,-0.015168659307954326,0.006116938059216925,-0.1902414157867057,-0.2732701096818067,-0.08179773429164763,-0.08329724485895637,0.2916501042619734,-0.17239294288234308,0.17419216486614242,0.14100505032488198,0.08161176936440634,-0.017875350700789383,0.1444887012402526,-0.29210675037051614
0.02941283019063808,-0.22795195685012123,-0.2632465760857612,-0.24480699860830415,-0.11191430712157825,0.13768355220868192,0.09909803280301299,0.015157756856786164,-0.11117004339090328,-0.13191304259521888,-0.2230791314260058,0.28747986693299027,-0.24182610340717414,-0.2874131773833096,-0.017726868971765466
0.15328741994198306,-0.08731038358163966,0.2837035050637085,-0.2046669741758888,-0.13123540367500797,-0.15835527676537473,0.24763023385912813,0.10440818889029202,0.2335545350671579,-0.2990557994909034,0.20503067120686094,0.07641795724618228,0.09735605443707823,-0.13322155899971796,-0.18480127804132326
0.23165486107121594,0.04845246107605671,0.28423269343122964,0.24538206604669652,-0.0017633081511434898,0.08548353377663703,0.11968420714288686,-0.2539073617833523,-0.03663924421982245,0.03709866386983779,-0.1545768865504594,-0.1280199508813169,0.12474134003504705,0.21051125101662543,-0.06438508502094047
0.28908496674754686,-0.0648646111610237,0.1933880811467539,-0.165047088697141,-0.1429411770074527,-0.18429913637175094,0.26937676718582665,0.15175562484173377,0.12198556242096192,0.07801375132543664,-0.18005430517887835,-0.07785690758035138,0.08773756090884488,0.2933625175412981,0.10242185833246766
-0.2075487494766442,-0.19344048280472087,0.28091524526520434,-0.09952363355182506,0.07018470761652928,0.015779735589074695,-0.2847867771010232,-0.040572811539355325,0.0884914636760829,-0.10772800244025463,-0.09998274979065289,0.2703065909199693,-0.26055910819909495,0.05458713171132945,-0.006080222937060731
-0.007411412336329884,0.14931492304800853,0.254374893415065,-0.19729252037802397,-0.1911992846827073,-0.005847046733555563,0.10311358538743087,-0.26637636241268026,0.2680609243073971,0.21297895628779934,-0.2765645250107217,0.13827402215992313,0.2814014751170644,0.0829849994004474,0.06919268886994513
-0.2844171606560768,0.06197197149852061,0.11519847855545393,-0.22241241067946915,-0.21390098267825064,-0.18230350358063624,0.2648119994773775,-0.17498180727907184,-0.28910609576770757,-0.1211878267685054,0.046104312529386064,0.13861521613532218,0.11725426291851399,0.07048702117174055,0.11810410748141599
-0.14305002543553513,-0.24251706238390427,-0.0009210934619930485,-0.02332794798926336,0.21252506479091654,-0.20579412625280713,0.12393753194245066,0.17673760130539018,0.13776891343490505,-0.13029000614797562,0.2113464371873214,-0.0018051643256706273,-0.03470777334107222,-0.22204643444897743,-0.2370648083835045
-0.02764912727770282,-0.3450500864807213,0.17201326848314152,-0.285480178238053,0.16563295536841927,-0.23631655120268585,-0.23911774128197535,-0.29816613764630234,-0.11920674470360029,0.006381530193461049,0.6650101645369069,-0.1889485001289118,0.08210400517705652,0.06785788134889037,-0.24480939976926938
-0.16802163841426995,-0.06632209352944539,0.28526364328650516,-0.02318560391064623,-0.21120954204425474,0.2696223786875734,0.2987641592061286,-0.27218608676442546,-0.017894476175212504,-0.13549209533034776,0.2900215899248597,-0.05970595760432229,-0.24626638489620206,-0.029709966164361057,0.2314157473787602
-0.08909674902352628,-0.24027999581747908,0.019593385851065293,-0.16978618433322565,0.13695996423712792,0.10021885110912421,-0.11319336501453348,-0.14326369517884166,-0.0443171695779645,0.29114416515895275,-0.20072306972904236,0.21607937837161978,0.27043233041702514,-0.09039316063613531,0.013228175974738854
-0.02356570404002345,0.21934925187922152,0.06074020044894196,-0.20440279023385388,0.12473369133055828,-0.19662891465760918,0.163823751444313,0.2471148369722393,0.05571420501243313,-0.07239788377351897,-0.23496320937448995,-0.23918541150719952,0.2561601680437356,-0.12579894030289587,0.20082985270033277
-0.26281075783349767,0.05810734889745022,-0.022614259574682327,-0.006301926431169414,0.26919127731709536,0.19834260926777902,0.13603115903418272,-0.22441445446840375,-0.1814868470025997,0.2586823647548376,-0.12458361346704325,0.15308451029408454,-0.20708954214225372,0.017110894424737233,0.19668906514804846
-0.15771713637120047,0.08367822093975368,-0.04569576787489249,-0.08229429743121708,0.18915663697949767,-0.0623598590259756,0.25527786001715774,0.1663902895611551,0.05663505164732047,-0.2024760748047305,-0.2804118907786213,-0.05844808951217115,0.09171274309152944,-0.01207407494039281,-0.2323141464511726
-0.09626292017391838,-0.06007845258006191,-0.24594682220942693,0.12277848625543453,-0.03031725250156225,0.07043114795373417,-0.029419423345309226,0.12477814944503174,0.0946973382840961,0.2812651997688877,-0.13647581525646393,0.17838173940692797,-0.0424436160338037,-0.15462095302960524,-0.25361339634563446
0.07137227488276454,0.042426486345958525,0.22983791805247394,0.043465830585620494,-0.27845742580093136,0.0892440826737162,0.11827278471301639,0.15148834387826948,0.05655600034418118,0.12676108047577206,-0.03963291539037267,0.289151100319804,0.297873467316285,-0.17984668534142223,0.10834263634288738
-0.21936663989924637,0.08064958843583725,0.06483378580807803,0.1729438432183285,0.09477648908031987,-0.050479799845776385,-0.24191214844630998,0.29475473697260607,0.07351488274586154,-0.06690030750026041,0.02467507337187721,-0.1303114832775938,-0.047731127559252795,-0.01405750112992854,0.1770157614810492
0.020357198434452384,0.06790527807417322,0.2999875427707051,-0.28237503353726867,0.058295806303111194,0.0380914765313623,0.04433498245030437,-0.0791708241106899,0.12771050861785987,0.04174719013363576,-0.20937045992704262,0.27740516706140866,-0.19744124536103558,-0.05777031976369962,-0.10017346563756069
0.039068174938451494,0.1397977932586794,0.16598908599395412,0.17989688172247828,0.0924787899334392,-0.2638860386351851,-0.16973064386303177,-0.09312442750711405,0.292032565309639,0.17946802931083566,0.09169635448228663,-0.2305546293848738,-0.2245519776996739,-0.07052527970808523,0.06812240406177134
0.11487966457547083,-0.22131603289302218,0.23780705031511146,-0.01268400905904965,0.26328153813992355,-0.14910594906144156,0.07430401213956278,-0.14410410117390707,0.029025314761175536,-0.18040129388474424,0.2811264823889957,-0.27336786034110044,-0.29869619063612385,-0.19698535164648598,-0.16036391364464947
0.13348347070009525,0.026055624451177553,-0.29556427342319047,0.21996597501351128,-0.09325366161037088,-0.1319082379223508,0.038658705751859423,0.029944599175112663,-0.2099435450823096,-0.1587513864851529,0.24784088734049325,0.2805907765841345,0.2436492682150338,0.09160110448905784,0.0846959157781117
0.012609376164089458,-0.2564317115803471,0.21245463798539482,0.14650675738057772,0.045098781849424376,-0.22916166600442983,-0.18347655890808995,-0.267617097482605,0.2783178760312514,-0.08096675573870546,-0.19224234886789543,-0.09494041401165076,0.1390922894787035,0.008153709400817555,0.04907387305951327
-0.09734942366041488,-0.09857494019122456,0.052743519013804696,-0.18919371371360316,-0.23688947615900086,-0.2979357900043496,0.23017284263446308,-0.22128583368363036,0.027617159406688185,0.16615727106732087,-0.22884916851759762,0.2819926596530378,0.2118843227726956,0.19420707473457505,-0.22108459125281116
0.24451384378956303,0.021023131206936496,0.18629552085286638,0.2635491138772577,0.21719738630839286,-0.08017362655763821,0.282665584309359,-0.28891551456590725,-0.23311242407112331,0.25451410206650643,-0.18669628504699926,-0.23182443463270302,0.1379292059990581,0.17488083604898008,0.07289203980576764
0.1859988123341979,0.06675724855646951,0.13388400779648013,0.047514954129341536,-0.17448688500436219,-0.011472221203075006,-0.26286304793819837,-0.18115218146431175,-0.055699368100802504,-0.17097609971569241,-0.18898209653207565,0.2540947849548913,-0.29384468134423686,0.08179461391101994,-0.12456359513008597
0.24733638140164743,-0.21710202532962433,0.043319736155783564,0.27249802825856867,-0.16769190435705053,-0.2689126322432573,-0.08156186216406175,0.019205668871534465,-0.05717597010384817,-0.13124092250617558,0.10617502946925869,-0.25309863885760214,0.14251653773380824,-0.17358188565384466,0.11147276578956616
0.002252720306244238,-0.2916315025238166,0.06058757940611481,0.16547425672539934,-0.022116633194639634,0.0424503891083689,0.29839579015443957,0.17297213891243962,0.16990650351561476,-0.033675748182619425,0.029298786185850356,0.1555928619781477,0.10485801116981575,0.07117496789138478,-0.2100493030648543
0.2307782539420637,0.2114072377737813,0.06847569748708489,0.0900333434038813,0.19878613324465727,-0.13634919130541054,-0.04859221300700117,0.18284088057359643,-0.1280216878316113,0.25388510326749064,-0.24625968781322716,0.20922110456233284,0.2745230668791839,-0.03810803759405473,-0.09015543126839975
0.098153052099295,0.10290953436128769,0.1389829490273922,0.19118152229583799,0.23154784636238573,-0.2528700515699476,-0.18274536727037138,0.24171557490099166,0.033179621256742564,0.058166879026830154,-0.1405445316062131,0.11901752972752155,0.12195979878787405,0.18286026370393926,0.14082114394884912
0.14273979583252486,0.0013248019552967595,0.2365064867653078,0.01671703983103228,-0.16429870658785556,0.19728281203242892,-0.24997254992268736,-0.1428694237705443,-0.1324471960573041,0.004380582767774477,-0.1940394551518311,0.2393208757074386,-0.08392890099927511,-0.15083192251214644,0.1113404928875595
0.11937885798787655,-0.24607140032087244,-0.0591590937020342,-0.1315868006331086,-0.16120708758801405,0.056782544397618887,0.08502620910763575,-0.015429550824411442,-0.03262020090237827,0.1535257761798543,-0.03189263567679652,-0.2733518316089844,0.14162601932544694,0.24645326050092592,0.2896985178420458
0.12224902006627857,-0.192290330921944,0.18408515637920378,-0.20511020910904817,0.03763085016570903,-0.29858919057945377,-0.14125658436835598,-0.006521605670861297,-0.25842006647665045,0.24155753162029597,0.16263094219909793,-0.2858217953777173,-0.14782625340142538,-0.028014930385777848,-0.111588382811612
-0.2003785400830296,0.2757690519944065,0.23834782202912325,-0.12515000837862722,0.03749304810543741,-0.15211568170605286,0.2657024596204188,-0.15848606562238177,-0.26110747545000873,0.036678240727024636,-0.23629887165434263,0.03192471659664825,-0.2443747017069886,0.18910140674823672,-0.003407527625751916
-0.04130175169856688,0.14948249385443707,-0.14906719742238964,0.15093605296474089,0.12420030506681867,-0.18999464906961872,0.10540375147175396,-0.29349631537468085,-0.0673570204978296,-0.29672540133722086,0.16561636596009058,0.1333864626676498,-0.21956408876884456,-0.02089764767810448,0.038027085788406224
0.062392469616457544,0.15585263287556758,-0.2632893928967096,0.015099616867956366,-0.2987832901814415,0.0023251434165670964,-0.06681488975562491,-0.10189549698197736,0.28196821244225895,-0.0779677519969002,0.04150068860804095,0.16236622360707786,-0.10898555686830869,0.1839261498152494,-0.24815158806594612
-0.2738606726856797,0.12161440230468128,-0.22614593359958948,-0.05484172547660725,0.22537214602304873,0.12468785998109777,-0.0943113038438832,0.2698873425477683,-0.13051416085659762,-0.12728227166648948,-0.15234203694790457,-0.05172121097201557,0.27321886813734003,0.17887000639484413,0.08506152485080055
0.15806537995457026,0.17127405951896874,0.19568862356223093,-0.0688346942986337,0.02668062423050649,0.005159500813668616,0.10513071866281531,-0.27519366436421505,0.29223774527434215,-0.15616797637766994,-0.1332203806110325,-0.05188162817815606,-0.007970076021051764,0.2443377989080992,0.15520229560702942
0.11884930955149475,0.1539425366448824,-0.042118195794794144,-0.28731660537333137,0.2840801664601395,0.19925500493812243,-0.14825830534770104,0.2327598966856727,0.26535371117311196,-0.2481429263652559,0.2522276303746733,0.24053160666562573,-0.16564716447227978,-0.14780040968516323,0.15283363259792887
0.26178431341237013,-0.2936271263901817,0.08958160470617132,-0.21867385070915385,0.21791390756459722,0.27925114298036974,-0.27505729584982125,-0.05450095829868645,-0.13054352641375488,-0.019791683052278297,0.14502500686459913,0.28087695795769213,-0.1536267000793492,0.07403203339821379,-0.01823961947680991
-0.20178672341195608,-0.15369364518992973,-0.1608337919751033,0.13058334089097728,0.14898082724430345,-0.21730853655909566,-0.053180235903822426,0.17405873225744295,0.21198331377035778,-0.28167868533259766,-0.12888605039268206,-0.030113097834966074,0.07299209193121486,0.2745951541926222,-0.2487021023549778
-0.21236221069529715,-0.25385307796018003,0.07647693366481034,-0.13617036204407132,-0.017534582536502308,-0.19264623147519155,0.08121758311605543,0.09336242426466135,-0.12682344499631976,-0.21192892954587517,-0.2894591112840941,0.1166235026582998,0.12063460587461433,-0.004688645447535,-0.07299935833785193
-0.22836218602942715,-0.0210740988075431,0.24378444924779846,0.13992716397414334,-0.2330867111507705,0.18874390743710168,-0.03998317299240062,-0.2121774041178079,-0.11991775310320868,0.09932140128832162,-0.020116676528945554,0.10333761231609956,-0.2602089996917371,0.11421414032048405,0.2287701593577522
-0.01064785400798003,0.0017872435051366387,-0.10204764330688085,-0.0867704938470837,-0.13226552770780722,-0.22462722284031472,-0.19884638113416261,0.11002146228464266,0.07641548824933442,-0.12384598980073769,-0.15889163555184305,0.2732776227931399,-0.23883537404156108,0.22744312843348796,-0.29980616065708504
0.029087992697490128,0.1429077070325791,0.16661400039606394,0.07899678150617295,-0.06795736416554472,-0.2450842015605442,0.12523526717345235,-0.10043415627681024,-0.16491183532351206,-0.04338694798321213,0.023090114221196334,0.022619181440088343,-0.021422091794910836,0.10522224005104752,0.03432263556569043
0.2988908557213615,-0.2753388493855196,-0.15428410517875132,-0.16599384469341485,0.13260223345026115,0.12503283202430016,-0.13602318385185402,-0.004362735993954758,-0.012635254611637392,0.19766019926236705,-0.28541978965400105,0.25954208895678005,-0.04502043027497693,-0.1624389880106134,0.27293092703259053
-0.0706528518004796,-0.11011910162741509,-0.0008129601300546629,-0.12924935238696325,0.25867320780551917,0.02102601448131297,-0.20713212952794136,0.2129583145430835,0.22298089204719912,0.18213313461016029,0.09920894263955345,0.1290276676714659,-0.25056588263377494,0.2152450075539007,-0.25675898265788394
0.14790201109143836,0.13362036770545505,0.07199102091042253,0.14268405610516857,0.2902078941665929,0.046382260243574946,0.19486379881254123,0.006146342626358825,-0.04025740286845758,-0.05966451701531161,-0.20654116164762865,-0.024557409336687874,0.09955479044466903,-0.09098846183529163,0.06333348025865543
0.21296420253318832,0.23983986876352398,0.24881556031883284,0.1733147789982304,-0.2882669857676377,0.28984033589918484,0.20154645930544873,0.2007373792736284,-0.15287967046581066,-0.08222162222634105,-0.2855865355421911,-0.18936616693265185,0.16135801849735898,-0.1970679741479176,0.012952911643018372
0.2087031711851594,-0.04272853125152803,0.10551511491480209,0.09477225160957314,0.23071742487336605,-0.25640929114131383,-0.25080396514923625,-0.2299189250051575,0.01003858342610564,-0.08796657946656361,-0.2587804829575016,0.23521666231389654,-0.05352404556594695,0.2789992751394946,0.26212054852367866
0.006697383957678771,-0.11463605336382629,-0.012051336421082248,0.18019214246991733,0.29170524415614324,0.12921430768498587,-0.10407163732546978,-0.02559527678262602,0.24291944500716417,0.1988590406919421,0.15340526291360662,0.24391266749008084,-0.17330136932658974,0.14169143864682476,0.12036946734286053
0.16263875317580523,-0.021179102093481905,0.08284777056935594,-0.0036552184470446947,-0.2376339284447403,-0.15731790285448954,0.2994074245137241,-0.03560709999715522,-0.16131024605897396,-0.15485353725970347,-0.24252904747230652,0.21834113566795416,0.19481700003110297,0.22459373720843318,-0.04221836003298485
